-0.02601031965747018 0.051670725811226906 -0.05609454509600921 0.024180945458015888 0.05789599346014123 -0.04199891394342637 -0.0700484303337488 -0.06318460263702208 -0.04704538782615605 0.04282434977326524 -0.08924472381846381 -0.054727525914743 0.005305804823090821 0.07640661132852845 0.003371910682172434 -0.012067355740328243 0.08335862322635869 0.07607975087199963 -0.023075548936380492 0.10680631891363888 0.045658109318613284 -0.07787409752555653 0.028933012493413963 -0.0009723589183162181 -0.0689978936339928 0.08540519680408147 -0.015379031549373137 0.0017330583377858874 0.06189164114025268 -0.08540161315756463 0.02630295919447465 0.04892019440682329 -0.05843950318812401 0.03446423723451528 -0.010755988698361817 -0.036355276061049865 -0.1287831851682 -0.024765878466177206 0.04971741437229705 -0.02776583435480541 0.005174154105724153 0.029859707238212296 -0.023368365380706534 -0.060517352716719736 0.08213095176337183 0.03851506297459135 0.0013250042789702044 0.06344584526638382 -0.04059979264977904 -0.015507330514073629 -0.07714699138760213 0.05534467760826041 0.05381088537681451 -0.0012142961817807128 -0.02637201336885595 -0.04510878898789949 0.041254236689142396 -0.08908406056781205 -0.010350874872519377 0.10027107325183468 -0.028900354282891973 0.09087064525422602 0.009119981034864406 0.00643931954279839 -0.05037897229368198 -0.028591868356448644 -0.008441737074773609 0.017867847837590562 -0.0842388089193643 -0.05842127806540212 -0.048615681208948575 -0.032424795901866164 0.03402961616443783 0.02936897628581209 -0.08505357668724386 -0.07706420861403561 -0.08570165219259449 0.0017600352620206789 0.10345986356772849 0.006384784793714009 -0.03667806043247076 0.025901871189059164 0.037069250525124206 0.023885233481492865 0.019009778725266126 -0.020380917684631357 0.033965335342605554 0.004738915178113438 0.027817280871505874 0.017101124748383847 0.01919584507841741 -0.040894610893219704 0.05106430406060261 0.013497698681820438 -0.0014494093139772123 0.06566750784697568 0.07569876324079416 -0.01299893094643088 0.03725812516448753 -0.023983969262586037 -0.06885243820176107 0.11141811271015863 -0.04660495877504954 0.021268996787734393 0.04969346874999065 0.03721333672481157 0.005420745460904355 0.049629271297709075 -0.022882324678716166 -0.024756027545706258 -0.08744423537233936 -0.041864799452796864 0.0026890707614940935 -0.03800093991298275 0.12111044971765675 -0.04410220333812905 -0.0600994655265701 0.04941449572581469 -0.05023483689255454 0.016837108355887823 0.015576608811560854 -0.06999417746168712 -0.016882881617617796 0.05403428081360843 -0.06354058672629126 -0.044311865864520746 0.09953923264307149 0.024668531848573847 0.03323031307967214 0.02640220723349682 -0.06988899141790841 0.03980916684243585 -0.06696713605107699 0.05482454114492416 0.05250601234172378 0.044706915761596924 -0.050839251562218614 0.05258220177671023 -0.08431452353843782 0.01759840952588231 0.062329463302157634 -0.00653060514081203 -0.012760869828331913 0.028908423590157314 0.03856242131943004 -0.005370279863117025 0.031004951869076727 0.005656926371093666 -0.10323155512498491 0.01590372955552747 0.04442038861402143 0.04043230730227075 -0.09260951933236468 0.00685104833871461 -0.03446233890544327 -0.06084236714778853 0.017434641960072234 -0.01849744277775733 0.15251170691184027 -0.05286824079217043 0.04644083647144864 0.05753905704365458 -0.03660405403519745 0.055758031872205016 0.07120861733923985 -0.04368892739814597 -0.07767496603345411 -0.04203462392812209 0.11427353803336042 -0.029755142327197913 -0.15500518096886934 0.0005417774350892777 -0.0034653974233060385 0.048980679599484184 -0.07804549606489815 -0.09254873726979233 0.031816553130063346 0.05871769311983396 -0.013505792009766617 -0.07659364797768632 -0.05831481393932065 0.07489285611656898 -0.09763937788284098 0.06537973423783569 0.007019415102326367 -0.015808542476695234 -0.030246815064896074 -0.0315850697213356 0.007651598253042576 -0.030599657622437194 0.06077108937762003 0.013101763295783648 -0.048827408691026454 -0.05840349328740458 -0.03351602724262152 -0.031238941324698094 0.02178346841176954 -0.06627509938751226 0.05984744488859983 0.04340425338556964 -0.008232577838332065 0.05585871936000273 -0.00664795722568183 -0.019837793094185326 -0.022855897362598906 0.015149656870526641 -0.02195207291607795 0.032420024844138584 0.024699398440763565 0.0025540791109065694 -0.08291536618549632 0.03883428151343185 -0.06338919985721582 0.03815957732763274 0.09695175219572931 -0.051270445630094696 -0.00033599668933659017 -0.010391544195288321 0.04638579686054726 -0.030777019855140596 -0.035762490880380554 -0.055226870315788205 -0.04444148435419075 -0.03454033019753592 -0.021584548386853225 0.07713097824152654 -0.03032625202597889 0.015633669620695078 -0.014590354683068314 0.0775294191099629 -0.04504999802140635 0.056100140503061016 -0.008115144155726409 0.06144588726246942 0.03361339056308187 -0.03279928554947345 0.03218379767552003 -0.054352173606771526 0.006064356967966218 -0.005790969906887919 0.03806373006775675 0.022893735574715617 0.01465187244887594 -0.0356192757529545 -0.10959917786560022 -0.020282816011935188 0.06399967147758112 -0.007310975118412652 -0.016100916712327395 0.05607299817050872 0.0036579823801797797 0.04669343895792197 0.015719557558158837 0.0651375923310561 0.04615771270088376 0.035226418860417136 -0.031182206309646823 0.07544224760890868 -0.05930719486896835 -0.005671496617762611 0.04110249234707397 -0.04658885755027907 0.013267683825056673 -0.011656832598222852 -0.07960469316954127 -0.12143592682001347 -0.058788331676724016 -0.05384033317853089 -0.0781173625279254 -0.07971617232455952 0.03951626028128309 0.0966905890108697 0.05163858913299 0.03050742737651299 -0.04392454810211501 -0.055623285721990344 -0.032010331287606254 -0.021450739890196552 -0.02175545926119739 0.023929800821372898 0.04586370001190061 0.019544186311945797 0.0010177721072346863 -0.015498546469492372 0.029736284751905172 -0.015499279241562547 -0.021632130461580582 0.049824317823864726 -0.009693976186503618 -0.03279885720871832 -0.04537661310908731 -0.012642855484962506 -0.08191341495384717 0.006298431369212312 0.024265164906264267 -0.06728353459703981 -0.0554001577640362 0.02114346372507176 0.032284181179791184 0.04424897136180624 0.000652885690775083 0.07321505623884557 -0.0646174537241928 -0.002139547602674006 -0.020337440424447344 0.020898849014213017 0.026490770528512037 -0.016347839948506748 -0.02767746929693425 0.014821836485671466 -0.03172892586564246 -0.06372442549415784 0.06166896304937846 0.07103071844984829 0.04236454201929209 0.05728280969721267 -0.00882287935599582 0.0851452025561836 0.06810382752068365 -0.02014273773136509 0.019412685191611302 -0.0577690386695994 0.015841574415462457 -0.004892542239391365 -0.06987721323962444 -0.06478459163399819 -0.053467890589330797 0.08336009496579654 -0.05467445488545895 0.0653417571399917 -0.0017448036909190755 -0.017272602795213463 -0.06827793771405835 -0.011169110234059506 -0.008426062400038226 0.010311468055611216 -0.02341262853025627 0.09550372201166141 -0.034373618160800576 0.022699092578791717 -0.026670503671633615 0.07482215517279577 -0.014595782813319289 -0.018891877065476667 -0.006389275681974554 -0.10460213409453525 -0.015432260744072177 -0.0389000719739041 -0.0379572889201891 -0.07773730985267913 0.02716863041872308 -0.032747836053178846 -0.14352644736146095 -0.06431033982282185 0.0058912754678232026 -0.02515201244410752 0.02262813894830467 0.02754345961283114 -0.03467514088286277 0.013806357167839895 0.020477307540196325 0.031064393817601427 -0.031985786702215115 0.043593931055283676 0.022663323635212933 0.06744189723192741 0.10915991806444172 -0.013314295419614429 0.008169157017607401 0.03830822106389618 0.029012991982264803 0.1085581924723773 0.034024754125724276 0.027419898855510723 -0.017520548389460447 -0.021715034086462123 0.050276667824396507 -0.02186312732674418 0.08023902372833372 -0.007340790977430599 -0.0005524179490904396 0.013311495183288977 0.033565006877048886 0.0639529139196489 -0.027613571632842896 0.0006686150035024478 -0.11340561740070704 -0.04807921102252672 0.014226251411678097 0.054225551396722776 -0.022710199598669153 0.1260748705262129 -0.04416605235871502 0.008560105825132218 -0.08412582007276666 -0.02351569936783865 -0.00040320892511937667 -0.08628233356398264 -0.031207862893207948 0.038782511436675986 0.06213402507837763 0.002423284911427443 -0.005440902263591565 0.02647752359863497 -0.04906871732904664 -0.061010821281669576 -0.01421771292177528 -0.014158456727815119 0.0003432567932204808 0.004877165402660394 -0.1100290042431091 -0.01004541399482318 0.0411524931873214 -0.07629733341006278 -0.06171499511995474 0.04927895389577659 0.06446548567195334 -0.06964835064420136 -0.10667276986049859 0.015400406628135016 0.08625269474049835 0.008218671438072558 -0.05384363296082591 0.061637117521538526 -0.04146026645765005 -0.007712037509036347 -0.00485815678266392 0.008364313454405877 -0.036626079185651444 -0.03725119373594417 0.04189739358075857 -0.03961742634741457 -0.03433360993580834 0.005626733864930628 -0.04765325193438676 0.03167495462416152 0.04458756858688588 -0.0388612580664172 0.009142730316237552 -0.005116752385174525 0.004500340106549887 -0.0529155908605176 -0.020324036854163136 -0.007606239730693006 -0.053132247031843494 0.036589045103622576 0.023353466940186727 -0.040715210961546934 0.017171515687775838 -0.025164431228030644 -0.026049964883998782 -0.020089711159554442 0.08408169931264128 -0.029225159067663327 0.005100940724383529 0.056959141198441365 0.07299200782630283 -0.014221159262293219 -0.001376321574015886 0.07912474995494265 0.06255507068491602 0.01453862846244042 -0.007034895495536912 0.0023027011235480996 -0.04008396257287282 0.08247772339314369 -0.018997171709444673 0.025753672577320034 -0.09180355366610048 -0.03134908017315991 0.04358456792494455 -0.058848843722849 0.0035613992635857403 0.014190118019724212 0.04384925304268734 0.0174459935407809 0.012978750162711914 0.05455300684554504 -0.016460867364238203 0.00927063125955795 -0.0187539838902499 -0.03867326568842139 -0.038137135290403586 0.07440151432489042 -0.06395183973620856 -0.05805399729075854 -0.008192855483491062 -0.04317040840556554 0.04094676653914385 0.035483300702891823 -0.08684767355908393 -0.008720276677694944 -0.05902373018534263 -0.05968135852221853 0.05390599173985342 -0.015756388746102926 -0.01356226665454458 0.02427320378878421 0.07049317986750021 0.027322173171134785 0.01977971114751149 -0.021462951156475923 0.0026851052903666362 0.026795162848288742 -0.015971183105279695 0.03228154028544652 -0.0610836384797581 -0.07400490892885801 0.03252177433482341 -0.01468028773810504 -0.0352646265243954 -0.0022003845058013193 -0.00992239515728174 0.007441482941516929 0.03235904785623067 0.048057708961226485 0.00990617709242722 -0.023910697573239683 -0.019459017500262046 -0.1146647583938794 -0.0014564833154652025 0.021034475445873613 -0.06377422569455662 -0.06375576729726984 0.01481970177416795 0.07791013470889786 -0.13381331574285407 -0.010011376107497874 -0.05949942693922468 -0.017822103694378262 -0.017640547762805166 -0.021776075699371313 0.056781267748212176 0.02000175058498033 -0.02655320765962696 0.05223386220529061 0.03732796932926863 0.012001559567067598 -0.0057506596462378835 0.003453630520472592 -0.04827521634752768 -0.009220154680546856 0.01576585531164672 0.09333830183665776 -0.06267720480791732 -0.0886450383165501 0.036623125542257884 -0.02936147448591879 0.037107293211780204 -0.04313144251923666 0.00801979309426843 0.0001178515483958858 0.09892202164263089 0.012975189560686166 0.04507973813466101 0.016832439221425317 -0.06714245266637808 -0.0013420116548147386 -0.022402380006563187 -0.10963140992327365 0.02084310918885314 0.04326854327843633 -0.03718046489784301 -0.015376532934046746 0.019244752451379927 -0.0019219421377657234 -0.08096093031665935 0.035126648588199666 -0.009200216263065835 0.01636331000606507 0.01350510062551785 0.01276332901301735 0.027472557660781854 0.029313893656409174 -0.04567112261255925 -0.004968627887305458 0.03448190349255357 0.05946237970012552 -0.012205638517315938 -0.0017251953308580063 -0.049574753416973004 0.08336614473850842 0.005257357013115832 0.036453842044805 -0.05765126010995749 0.010838225690362528 -0.05324742744143584 0.0014587298451679868 0.05907407800381359 0.07378243664015952 -0.020591447496380765 0.033353049604880364 0.13810558546600102 -0.010479101591696014 0.007965753132655922 0.01072795300624556 0.0582661713903665 0.017924291419304485 -0.061062082332220345 -0.014907976147153786 0.043825128519189016 0.045870464622781916 0.056944418131257606 0.044416589653086175 0.004171425577322576 -0.018650156887039807 -0.010419178829436304 -0.04787547763031379 -0.034350219275091194 -0.004137613145487105 0.08214782892473278 0.060842089131661795 -0.12244706041716226 -0.05671014164853797 -0.041782973658445244 -0.06369429387851062 -0.042038412149463134 0.06022048936986857 -0.004082644689590161 0.08204607946501381 -0.0070106846201486795 0.023930530870878715 -0.08998718546063382 0.01777393444380048 0.0009922006305483008 0.04887416049394233 0.02948496643037392 -0.021218545113688654 -0.08443930024204309 0.001482991409143633 -0.05273609542038179 0.009517186447353358 0.020548308615697015 -0.11349451537700682 -0.05465895384044007 0.028503337063434307 0.046765319577865706 -0.00892337714405615 -0.07794073401768123 -0.0777404906203908 0.032181148452251195 0.03743095037291948 0.04546087630790752 -0.033841042025853044 -0.069075815935584 0.07004962073829252 -0.011075079507606512 -0.0006983729318611635 -0.028332750923148367 -0.054449510433471106 -0.018870697657789343 -0.04202487711256431 0.057847200432770765 0.04324884374967932 0.07020554739946096 -0.01826949465225022 0.002200400995063081 0.05962953237412874 -0.08391235604806241 0.00642190204026879 0.032597632509132085 -0.07868987552530843 -0.060585634041322826 -0.035797999659712254 -0.07339435914708843 0.055899510511014654 0.003325850665229399 -0.06712782449884525 -0.002215091393856897 -0.08459455365405186 -0.08134208467335054 -0.006404034455250354 0.011432633882604525 -0.00491510998657938 -0.09326703737888951 -0.03657591368259616 -0.03402856436713665 0.02531456467345121 -0.03557649623121046 0.011565702076963483 0.04569106156300606 -0.03716147423710928 0.1129221795649822 0.010772005892722198 0.034004559085293144 0.028326029098707645 -0.07480744695436921 0.02398163079362594 0.034716398750561685 0.047149565736702606 0.0025716077597153944 -0.01615220773793152 -0.0339967643198623 -0.03520663614503109 0.04096961976335736 -0.03786554286283861 0.08039736352834956 -0.05646021778549411 0.023151179502584864 -0.013813526261013103 -0.034230323264233975 0.04813182955450742 -0.0033139137540413046 0.07284968191417872 -0.03144146571309521 0.02205219931131647 -0.011468584563785685 0.01704829236845585 0.020890040794512277 0.03225210794770725 -0.06385425532642262 0.008605709333530932 -0.06882223046260529 -0.01738630733120785 -0.060121223773329915 -0.033123325926975596 -0.009215679823237921 -0.05850429058924144 0.04773084135732793 -0.032065831358025786 -0.016596061311607277 -0.0648899608416838 0.07300794662415391 -0.03433504804737438 -0.04938234174383627 0.0005104598264644631 -0.059043740511130864 -0.05774889008295679 -0.007575531537998336 0.05977079540657039 0.07085922845405221 0.05761281024372787 -0.01774274701146322 -0.012447674247132267 0.00953699485955427 -0.04811242577893234 0.02565295113840525 0.034636833111249404 0.03127015511648664 -0.12929913739163884 0.02298715454950132 0.06867276931971798 0.015869722428373916 -0.010716841591475079 0.08655830576682211 -0.1329349255044444 0.020396235516029117 -0.049876311730758786 -0.017745021798338288 -0.04420235983581559 -0.04122918237279189 -0.01569340726749925 0.003641421813352641 0.08310913154547787 -0.009973575055947441 0.058401444912430975 0.00205262292230282 0.037454071855095264 -0.024181768910155724 0.11879801868744255 -0.03690652812710301 -0.08402525638115015 -0.0035822257258621747 0.08844324679015397 -0.056868317593991496 0.03947443856399615 0.06675633785587075 -0.006428342489084044 0.011555344762534395 0.046943374495292095 -0.031493567775647026 -0.020434787025334272 0.0613775259415693 0.024710147947306593 -0.034030407639209344 -0.007331645796795084 0.10598693033529769 -0.06710936418987895 0.009149690851512113 0.08606816788490229 0.010287979527989597 0.019675746674457737 -0.03862222709653675 0.05225074174136154
0.021996492446117986 0.025683341245393298 0.006549416249359998 0.003696079101329179 0.042809628205744174 -0.01942986954761971 0.010735636740435397 -0.011436526185238289 0.06991610932448537 0.05292612707327251 0.07148278658055048 -0.006611320410524673 0.010601023985723844 -0.02077363156387591 -0.09530522490477582 0.012629465930373384 0.057341700272467516 0.07809209565452917 -0.016350167555910036 0.05595084017235283 -0.1245453873031295 0.030979336938826946 -0.027970170787948632 -0.018434699948965915 -0.031690832914247805 -0.07308678576468294 0.012603914988570105 0.030016929982687655 0.018632723336421658 0.0824147264809277 0.06581300862097773 0.025392671696922824 -0.04546759695250484 -0.01245338157423297 0.005230582087203965 0.024860714935536467 -0.07798587129968848 -0.01127520527065747 0.007123778018663716 -0.09528462180785421 -0.03082285490851029 -0.043458346909607246 -0.046955103919554056 0.06504551110719405 -0.0030758294620747335 -0.09000965603457142 -0.03547879063701723 0.022695325678503478 0.021644920840267638 0.040545439850277164 -0.024115320316412562 -0.0818041271895618 -0.0996079218718523 -0.02331659114369342 -0.07249714898885239 -0.051927122913034245 0.02473139958787746 -0.0543360053330549 -0.036642511563664194 -0.005217967214011288 -0.020680123851435115 -0.09103074026279412 -0.028238501955149934 0.06445809666174224 -0.01955173464819614 -0.0019227194911743016 0.02617482327309123 0.04666488815982744 -0.09238180757923017 0.007255194644802522 -0.018426421668988908 0.01930091935677762 -0.07559526650758558 -0.02574880641107438 -0.008020602127316727 -0.05102474360309357 0.028207628629443628 -0.08148739715572273 0.001042165804334691 0.05575328627397629 -0.07493276691111173 -0.05946134655117879 0.016963089777169208 0.061769166427484146 -0.04451650219446092 -0.05329514374203061 0.02664106659831156 0.03393208708259549 -0.030991023186763788 0.02038524036106051 0.07517907670783064 -0.12090508110429725 -0.013233331190134078 -0.0016753371198396005 -0.021837015281618938 -0.024713880480355672 0.08025586204017857 -0.09507238887885723 -0.019638047044141377 -0.03757735478589671 -0.08929753430908204 0.05690975206375587 0.07303950058697917 -0.042047166355853746 -0.017928822323651963 0.03077888298028958 0.022548992977915433 -0.021248894104574714 0.04321754996309119 0.006426564413022521 -0.05324691992609331 0.08179570755048672 0.08977557653070894 0.05150893454411342 0.011573363807884578 -0.02653266537977229 -0.06495810059985069 -0.0598356286932089 0.06180133630304221 0.09124499375470442 0.06574481566086536 0.043384413812666396 0.043352435721345624 -0.013863677684115854 0.005762185662543618 -0.10052146568223388 0.03463839582761009 0.0693063659271269 0.010107985119207663 0.005866181998924051 -0.02106853409614298 0.08535918796055533 -0.022228840058069462 0.004813360760465751 -0.056223369306292306 0.030969580898350533 0.06519586982578643 -0.0432130346589972 -0.0686567511085901 0.017602117713118353 -0.0052313278117776365 -0.0201726946521804 -0.006058387815327366 0.0030546208617777313 0.053220000717029065 -0.06463531719288955 0.023407941904711828 -0.03925531078514677 0.015569673856262747 -0.026646942039501506 -0.009768861242692979 -0.007006959889017046 0.0351131641613244 -0.05610338423581149 -0.047638627609369474 -0.06153003984313615 -0.07302171076017533 -0.06994205887676563 0.021775199909444074 0.026092886136693822 0.047103301199544666 0.0475066069126399 -0.03859870252822234 0.07545904557212972 0.008085963906479495 0.08183999833092616 0.005563709474206061 0.07099108308566045 -0.03124806308404041 -0.045063060515064306 0.007056917536841815 0.029914799204741566 0.03973276027525059 0.018072392277572253 0.035988361517914985 0.04744439182625984 -0.027876059157323777 -0.04671810725661342 -0.03170540665826701 0.02682007342373834 -0.05017556175092106 -0.011848892300786036 -0.08477408224065536 -0.016644854390438956 0.0607455508002878 0.02090374726982165 0.009884060950113663 -0.02755400556588702 0.029718993394913885 0.11351092646987529 -0.022500264667241452 -0.017850887856363084 0.060182554034124064 -0.15545827224769893 0.08163155457545918 0.061086355628352025 -0.034001173890441425 -0.016601923514845972 -0.027947053037998854 -0.028922908970255908 -0.09172438095761147 0.01692955475775723 0.014970120190721106 -0.01877237952202378 0.029964877938656282 0.04964400038430234 -0.0019278707125469632 -0.12889603506291913 -0.023061324836596918 -0.06841532354699008 0.027684209834550874 -0.01472901370374363 0.07076942336580723 0.03813207491493308 0.05320877174418141 -0.0004630166714898584 0.01728523475378103 0.08151876690124475 0.007385414648029842 -0.04398352448124798 -0.047217812482933365 0.01564147477353882 -0.0180928947969209 0.06132113453372691 -0.04390412027655507 -0.04080488406317063 -0.018168628620616124 -0.05787590329502781 0.038430692741680324 -0.01825416486802193 -0.02557269828435964 -0.02314442324355818 -0.03708721199300505 0.04125484762791753 -0.043966613817824414 -0.03259262961993643 -0.02717711428502249 0.008353697196262125 -0.07842074624040173 -0.06752502669919308 -0.00945810910776592 0.016267236652439895 -0.011957492268056326 0.010035954917334727 -0.004714293966376259 0.037573666753045076 0.04346877273408335 0.026148713639875986 0.018311634792996394 0.04165504280567761 0.01710672369556558 0.0018387344223375487 -0.026869782066899404 -0.09791716302929504 0.04539636475387067 0.014468666414195563 -0.10116558157709664 -0.0026014693125458324 -0.07166823096884654 -0.08051996987672105 0.032545545251673344 0.02085675404012066 0.03324978671849593 -0.015858053467758794 -0.028131428048334378 -0.0008601653619166033 0.015655433580783217 0.005351214864608469 -0.015922779198326503 0.0009157766669603736 -0.022236153989996003 -0.03827373552392589 0.023156577704457417 0.0007428317218416882 -0.023792492561041025 -0.014971065941780968 0.035017549681106486 -0.01930808468698456 0.05669995733473719 -0.03845239387845107 0.024203134919276312 -0.020839912191659364 -0.037132393849606656 -0.0915117868702292 -0.010727080489058946 0.016436982949170266 0.012076730548759318 0.01954765277264137 -0.044959194019805485 0.0335032145310493 -0.05649238363980649 -0.024543607966824605 -0.007017289644339065 0.002109506494181018 0.041252845350189984 0.03055293827149055 -0.002289676502991385 0.03960076032114373 0.047893584546430494 -0.02196773488893315 -0.007775151759546371 -0.06788961683030827 -0.03953609645095692 0.03226485701461485 0.050667270739760115 0.013806833579916732 -0.06139429938252389 0.025115153894970085 0.016860680562313882 -0.05909621047911377 -0.01943091039640971 -0.011362364549118119 0.06159660115596374 0.15042265105140482 0.04249078254584903 0.05869686961707216 0.036283210635827484 -0.03633559661698779 -0.11822099970863202 0.012596337577648106 0.06437126569990058 -0.019670416060004973 -0.08123421370276936 0.06743277740973197 -0.011584458717107449 -0.05705512889257163 -0.013670916792491647 0.04953812668564921 0.07144143273075954 0.004240033726069905 -0.003529016403714623 0.08238258650167662 0.15045159650369339 -0.07883501558603208 -0.09123970651656804 0.009342433141317861 -0.004891265362563131 0.0675880381460577 0.10944129445067771 -0.059050403140837184 -0.06373398691931234 0.020271028212459023 -0.026708739699878532 0.12579453506128327 0.008153922352998505 0.015001686664707537 0.019806774802031392 0.02461704840067696 0.0020125398411187955 0.07792158818565954 0.08593379283349822 0.029114034019652294 0.05005777668931259 0.030229830339430004 -0.004697735518156471 -0.007389455915403739 -0.05057570039471184 -0.0008055597970407277 0.008991105305225192 -0.013505351964875676 0.10453069770932068 0.052545277791758424 -0.01926495774030392 0.0058510997049872355 0.09155401923092618 -0.01750019219385085 -0.053316376336192885 0.03397993702137935 -0.0008007670823162744 -0.024801793102932228 -0.013641838188301638 -0.059546836367620565 -0.008213227927065697 -0.03326956254217229 -0.045817482794334216 0.03738409293771167 0.04980665411705119 0.018414265321378392 0.05926053882721224 -0.024438301317737613 0.018592411905120926 -0.013517733449918407 -0.06439838296753049 -0.008037352099770696 -0.06971589233734454 -0.040411028365832415 0.044907898662929525 -0.07541998485535423 0.023763844524972058 0.02903932143525183 0.002102028918958025 0.00751470296394151 0.02420051880847934 0.027004602986325454 -0.06924979618182683 0.02806056328433148 -0.018785577292823628 -0.021080586410826198 0.007458396040193667 -0.07081924317076942 0.03173606699372632 0.0056810121540590616 0.05602875760795969 0.0010075706575991997 0.025477046345637175 0.06089171880892435 -0.03490148685515629 -0.010651462159229966 0.02046349427350157 -0.02899937386250356 -0.010031193619926972 0.014347966227555662 -0.0774296571304089 -0.056961647880329126 0.10011661196011468 -0.032843092247776894 -0.05997282037800874 -0.021016172090139444 -0.02575419805372479 -0.009494533224162544 -0.00872137241343055 0.004034822268499784 0.022693408585230793 0.0074008059665698085 -0.01641670036921836 -0.00600957685142167 0.025581845668979232 0.03742213655037394 -0.08259543702245946 0.037391854746072095 0.005114832689322808 -0.012118190457877674 0.03364962302398669 0.01685136020635951 0.0535439356638245 -0.005317510825390468 -0.01565730328789117 -0.03666865666509805 -0.0927157955196316 0.0067025661193430425 -0.032939298062592014 0.04628845215806615 0.029719187516385644 -0.027429829049723988 0.03596164458475537 -0.05310221537156065 -0.01967634159951885 -0.026714487204098643 0.0879195739473235 0.0621398911487748 0.029793319476382196 -0.033275853128977746 0.046808530137818265 0.003981137879040409 -0.07957877936121087 -0.05067648933697789 -0.06215458102710601 0.048785727165382924 0.020849656326940674 -0.01967015723924625 -0.01277688952163887 0.02671977686918101 -0.09240206725662299 0.10288613716882675 0.0145035228080348 -0.024702455040843712 -0.09394850050831122 -0.006901458591009335 0.0341140079395116 -0.02556219606569581 -0.024840156018854608 0.01744849532151542 -0.04732061031619133 -0.06697954258817515 -0.0316115658760294 0.028035390460198657 -0.01697367629145067 -0.06351706994536237 -0.050331195783460916 0.0251824049815016 0.0005236201112603922 -0.009553647599378875 -0.019058948931893072 -0.06718845649212885 -0.03236296405064881 0.0412926001261304 -0.03450838717972312 0.0371241162834791 -0.012709687667231533 0.0034498720496650604 -0.08263834164339953 0.05846102903350008 0.09915782918251281 -0.06869167026965843 0.048035964853164324 -0.07358436098999921 -0.09486587453005607 0.038752504875301685 -0.06239830113290523 -0.0006478454833497179 0.004010097044934429 0.05368224788363292 -0.02288206649063332 0.05005859237089741 0.08814894148903842 -0.03453010619024105 0.02828483890631321 0.03270425201661892 -0.03604803595421515 0.00974048852104134 0.057053847727385996 -0.09456216553435079 0.013313911957002456 -0.03265214953322466 -0.08862070837386819 -0.014248279041734677 0.03801360436453948 0.0649067369035175 0.044778450305593895 -0.0020831924160336765 -0.11043807017259223 0.023638430999982932 -0.004270770259010101 -0.07033595743271215 -0.052955341893507396 -0.07278411016771114 -0.0032865507619335706 -0.05176261980369612 0.010702040480430827 -0.05122632031164415 0.04529767569122504 -0.014771316899579693 0.06859594070911909 0.07343225658987339 -0.01725600321720318 0.09806832386013802 -0.005346057149777268 0.0012311793473375667 0.01737887799364471 -0.012816747266086757 -0.02781689808054279 0.015072243463586278 -0.02508114691577086 -0.00942063196741539 -0.002787255612724096 -0.11928742304668763 0.03747020949455905 -0.011741480827589933 -0.05245235543082796 0.0037617383177778662 -0.011383898395003554 -0.012512541817144299 -0.0007689384732950106 -0.10348552094246724 0.01911857152460997 -0.016937211564768868 -0.08002673832547874 0.033288915126472765 0.0016651379851737346 -0.008121133175398927 0.15580660420171014 -0.008965719712183804 0.04752089560674208 0.023121894711221964 -0.03321422146154847 -0.019260252004026375 0.07931973029980317 -0.0856257442766394 0.008742755774564659 0.004973766388785156 -0.030126544973064717 0.08227738626514226 0.052209838399977886 0.028858193273552896 0.13469381000597758 -0.04414605672176343 0.0908107711106687 -0.0128554370122575 -0.06948312208366139 -0.06883405267918648 0.06459792570233326 -0.08000296886693137 0.004330873642542635 0.03444987459133241 0.015813297874039928 -0.0355453661685389 -0.034076796816178846 -0.024393559977858206 -0.03827203101263548 0.011466753658634612 -0.029439174535345922 0.021382593617114372 0.02045399791069226 0.020190350173097484 0.005764457760262142 -0.024944350742755347 0.0770857010829062 0.0854518666282292 0.018464918115928076 -0.03816092242351851 0.033254463698126464 0.05172317608219926 -0.08176482824576019 -0.08343414813029577 -0.09294151719421644 -0.09351310055193804 0.012746106881278502 -0.03363949503363578 -0.046518361598412515 -0.1511137786133146 -0.0015752706737934812 0.04174914956459329 -0.042910423135576206 -0.1296269870605828 -0.013924010983706157 -0.00357354655512855 0.014200333168458439 0.0960359816713481 0.022155972036762044 0.07002081329531219 0.04141853493028327 -0.05419642389484193 0.00039862607798355463 -0.012424291337654663 0.03334515136705809 0.12400935259388686 0.012113634812684914 0.015655210102873143 -0.04800459256400954 0.10864300878324562 0.03248476276147134 -0.038076957877881686 -0.0025895264184071856 -0.05626797274203292 -0.029824449609982193 -0.0066575148744295225 0.01232034334553707 -0.020025003557266486 -0.009958071435003974 -0.07166146351223626 0.0421002820172912 -0.03949958280125335 0.043492490014758085 0.021527494587108217 0.029381220794076478 0.032006379018700445 0.014894095126427007 0.10009961331668298 0.08486299897058422 -0.03751617359057653 0.022540501902425573 -0.01276919835831519 -0.10333129269445208 0.013158715727697935 -0.012312996453474199 0.07779091865204459 -0.07309293775573969 -0.05901080742208816 0.02056809901294617 0.019903080107289202 -0.10563982460799849 0.028145070235251184 -0.003141326338527045 -0.025554928757768172 -0.06361619865622749 -0.06105388867591016 -0.023527775758320667 -0.011398153872983208 0.02721806712197546 0.04339340651541088 0.013877750051616598 0.01119025912754384 -0.01177361508279328 -0.07586812917991366 0.03740439338542533 -0.02598334192128291 -0.03279830753879823 0.02941627762591939 -0.053637376000979765 -0.03466508737059247 0.07836000497178307 -0.0029781796502983578 0.03445963013869636 0.03917829389476021 0.019839168704293222 -0.02859870013057761 -0.08572871000439154 0.10364712563370522 -0.02789753933798534 0.07965250075440156 0.00024351463599148586 0.02629788950314667 -0.0034917729403615948 -0.015076317017853195 0.038313691992198536 0.05091546875327012 -0.02266332548969144 0.08111109914707221 -0.07364064960574214 0.03818708071529094 0.13823080633994653 0.038870746798937886 0.042712763342947636 -0.017836873759719266 -0.022840869042552604 -0.11586160255094403 -0.0321046698282848 0.019568694394425625 -0.009680841897489918 0.029158598983525727 -0.06733557943391917 -0.025715505185656493 -0.04493153610473818 -0.03397287216876586 -0.03289411252944688 -0.053544274750596615 0.018027623798963145 0.05622187611035094 0.04321865114021321 -0.03859558873261447 0.015871884897012172 -0.029153994906791138 0.13639354179429355 -0.010267101790279693 0.10674519063426613 -0.04440090560396632 0.05139983725341357 -0.011911677161110919 -0.021344252208149273 -0.0686772803183991 -0.10410686316957155 -0.06514753777514816 -0.010565992077933333 0.038781734843189926 0.013593713772891612 -0.002425960838233917 -0.019147278835498653 -0.007618631506074266 -0.02128478778692204 0.056702557835012976 0.031531719373821154 -0.007510954283911536 -0.03549324610314792 -0.12162477174227412 -0.02600829050953251 0.0012133621561869784 0.022544664697948084 -0.015346049939272898 0.0503136165433451 0.001503997052891968 -0.01861032364173803 -0.05015870104235124 -0.07689936297724997 -0.04970059538601408 -0.08809346604279725 -0.053004611493273596 0.061314105376164704 0.01954723331492968 -0.00252120878618252 -0.08031212206641283 0.020910173603679864 -0.007395586996761344 0.03367039864610254 0.031115517505701427 -0.026572340189402518 0.007038088437124769 -0.12567353653311727 0.02291859440202747 0.02214820602873727 -0.052803347364366995 -0.1414495375877149 -0.10359423623481888 -0.01724695304291376 0.040991814744815946 0.05609604001545789 0.08214201765949927 -0.03728970175404315 0.0014499209825090753 -0.024795034026474656 -0.017625188739519293 0.09887109336845527 0.06305280553831225 0.08257641835407276 -0.06014451965513468
0.054243624443482526 -0.027662120725803395 -0.052662600325745525 -0.031117195907133622 0.051830439812151935 0.08603002523164124 -0.056111648977253896 0.07504529317428846 0.03350734390726526 0.05364230619576563 0.008553021540910472 -0.0019204219121891142 -0.014697172393103666 0.010726266589169682 -0.05192927767916464 -0.06712322336590441 -0.044544211659782965 -0.0001211066897447762 -0.05953267395673151 0.011084192487580956 0.03461295344723835 0.034658311511221854 0.002932623139254866 0.04053474393592578 0.10941581472795418 -0.07796374004271062 0.03472970346937027 -0.15202301610315197 0.05049530147368869 0.019226557459373694 0.09268631078830422 -0.012626247388796133 -0.1245266541693257 0.10182242474268831 -0.025002533919667 0.009001797378788336 0.03168114636953924 -0.008354438685209417 -0.002475901819932694 0.08443117417795656 -0.09132136951216296 0.04419760017511331 0.007172308855743517 0.026934959944220953 -0.013934060716562575 -0.024402313048536888 0.06472908090116096 -0.012190391314224032 0.01874858037547144 0.06285083476419114 0.05703599008274693 -0.008323694522765778 0.0034540280689481246 0.06128447145393942 -0.02950388303021345 0.029072340082963746 0.12217561468705318 -0.053017830173246655 0.037504237429770396 0.12385054229273018 -0.03924477432577065 -0.08329064723989543 0.039965896945761206 -0.03154702285487938 -0.06180066462325054 -0.04768452333587446 0.05784720774012206 -0.027172755655488677 0.02581405198262921 -0.04513361459329824 -0.009362602868905508 0.009719503993145669 0.02225127906875654 0.040639056518734694 0.03230154834721293 0.005593686825179492 0.04821018427593008 -0.056262050991954006 -0.0393836789652311 0.012826252135523403 -0.00387489038789175 -0.014641867654489927 0.035809144653245105 -0.04042659743434014 -0.042245896740839714 0.02025083028702265 -0.013719738175141303 0.03165503448585278 -0.06459487061409135 -0.0615766728832659 0.033200695850428036 -0.05321168158739967 0.008420487874460505 -0.019980840427118167 -0.02030201135853053 0.03545757749259583 0.1306862016560364 0.03769015745862922 -0.04610002694197541 -0.011247067979628279 0.0257689289216212 -0.0009448495498167487 -0.02867695010510602 -0.02727856306928766 -0.02636042524417195 0.031770157712723505 0.061763999353899084 -1.4898354462743529e-05 -0.002900601553064596 0.11806994252212871 0.044945512086254184 0.06186061177829446 -0.009660394060118312 0.04241240360896013 0.004685601851204909 0.0795204855637534 0.015381888550044614 0.020294745955716287 0.03762164819678417 -0.015865377180853266 -0.019430982281917347 0.06858661594132454 0.034481400729612866 -0.006124605542445371 -0.060529103252140226 -0.10876758849380967 -0.06398528050514961 -0.07793739038036056 -0.07651934706320442 0.0438886880700027 -0.02765396181990268 0.005765898499513052 -0.018551948761861788 -0.027460219780759184 0.026439998656330628 -0.015427373754428323 -0.027748068765398117 0.046267717387016606 0.058925638454819435 0.059509333540079624 0.03264338076235857 -0.07269089880603309 0.10353498569905067 0.07423136782144794 0.0774274028436839 -0.020715485005833 0.0377894655424668 0.035647709030612436 -0.05366756649524463 -0.02540406647383897 0.06082530254539563 -0.05217918976020853 -0.013530341256396418 0.03886547322676013 0.021684868614484595 -0.022583625954335305 -0.03784889184966495 -0.027680590562673604 -0.05770286309491236 -0.037247209580757154 -0.025207068404263195 0.029128781142592205 0.020160961683888274 -0.11618325388731117 0.04182008100960902 -0.03401365709206005 -0.03515088531967427 -0.01564229058227394 0.0734608816619077 0.04437815833986525 0.00990239652391024 0.036264446307464615 -0.032219494355098764 0.0375910738171393 -0.047645887817704825 0.045417103240290885 0.01096245060314489 -0.047729473054111696 0.0009360174571101908 -0.04349036397621273 -0.00679661993750386 0.04811616407629827 -0.030228687412772008 -0.046277418897443766 0.04109237721952658 0.05625529854113081 -0.015305104398087906 0.020620016657255037 0.0038158814285032578 -0.027375710911491515 -0.03952124094211417 -0.034852725986877796 -0.009975397461639533 0.0035460657224180726 0.011245181648854739 -0.023474803124168928 0.0516775907161403 0.017407047469095032 -0.07068952882761545 0.0013758322107507094 -0.030700747751730376 -0.08013703738967047 0.04838593007928607 0.049204862990542636 -0.002369816873246242 0.02583558559865524 0.04418789907020226 0.07493476363151674 0.029653238260210123 -0.0026998317872681896 -0.12627701455811333 0.0338832928384191 -0.054824659023500685 -0.039684995703440064 0.05124074927196856 -0.0973443155422532 -0.09910892274414611 0.013997870656663282 -0.03918128737299499 -0.0030220392941570817 0.09439040383349402 -0.0015769791246517926 0.06712620096167103 0.037677086497256006 0.1300183063142084 0.07118897352407233 -0.03500906863986609 0.007214835807454384 -0.03019191465637248 0.056088581618055515 0.08571067182971509 -0.07068374281732881 0.035406334837836784 -0.017194745518967765 -0.06485040008180348 -0.002451370086787087 0.003933478591455443 -0.01688402744644891 -0.015835593906434797 -0.024333668793954173 -0.042513036502365535 0.007808292178682431 0.006292410984417046 -0.01332719790101656 -0.024043117645571287 0.0248652193839809 -0.03171779806336849 0.01163582111516 -0.19661047733686657 0.008111756235985597 0.03288053166164637 0.025301306733897827 0.06463359380847421 0.010763872422643905 0.05318436117701319 0.01858100158868949 -0.0004749844890919156 0.02988332475548653 -0.006883433772491799 -0.06777215698101915 0.052233891812437865 0.005944627717780611 0.05129129483922546 -0.04989838327637069 -0.08083821732659674 -0.026757963404554403 0.03500365392475685 -0.029524529231561365 0.015255235045162388 -0.026250938948493053 -0.027170549386642668 0.016235699353985743 -0.012030438775785897 0.05342030296798856 0.015351682287298496 0.010640536546252702 -0.0022458518516143854 -0.00555714310687187 -0.01833092433541093 0.009697896368548708 -0.023524241693296453 0.029994164745847755 0.003545860188460035 -0.024435889188815424 0.02190402374230633 0.012831282131151835 -0.031655405372771 0.049439454669995046 0.08214444889432533 0.015163750268971361 -0.029592059668232012 0.08046367675004731 0.005514609493545019 0.0153752255752342 0.0341547064429456 -0.053858064983488246 -0.07599611792354119 0.061855269175038384 0.06674274118813663 -0.02617460680506652 -0.028286692516855835 -0.010921053152996801 -0.04515204830549266 0.03764847380098311 -0.03200274920042419 0.03734635451496834 0.016765672324931 -0.004262986530010768 0.01802009457515983 -0.050835465321283996 -0.10947958916060285 -0.023938284993629343 0.002266519334609537 0.03466258553142508 -0.04183826584382211 0.12497548382934537 -0.01915681379557233 0.02898635681315406 -0.0017179878655533263 -0.10208460458303953 -0.05343826052030267 -0.05693046069270762 0.05561044147187853 0.026694827116241306 0.05494007549954648 0.02204271532030851 -0.08115348882654602 0.03941101724680771 -0.004009286477836023 -0.12225760093874807 -0.08891473040348873 0.0223004282903799 -0.044866303161871166 0.1167660736965304 0.06036066374892292 0.00873270741555168 -0.015419665886393015 -0.056147157388750174 0.000835881202868243 -0.02593201276056623 0.06526502745453089 -0.033308825975124884 0.06258167057789173 -0.0758937713533711 -0.04923685454409283 0.025047801049617593 -0.049381035847860764 -0.04257490027133612 0.019512189495863756 -0.01089355962396109 0.03430635620631509 -0.07257190401022091 0.020919164285339624 0.0634436511421088 -0.050176601715755186 -0.015671567480425155 -0.036583318953985734 -0.027902214458600673 -0.005304413516027464 0.03585737293788778 -0.06663946031689125 -0.05562535243789797 -0.010157964539347449 -0.0017749586093861972 0.030580391064326633 0.08001214021194697 -0.06360951394599058 -0.05931525542731634 -0.040757795411130386 0.018006246212109063 -0.052694864414489964 -0.08462949467545317 0.012914286859727097 0.003862318873181198 -0.07986898874339436 -0.13862584655800383 0.02179904281342364 -0.06817381517162782 -0.09298552083013424 -0.09076778033258857 -0.04223963244133224 -0.023302744181931116 0.06566340299032594 0.010282785944882938 0.004352161145354959 0.0030308624282085854 -0.00934913929444882 0.037444033021510725 -0.05511663727469894 -0.06485244568533455 0.03784049385615841 -0.07789047119799623 0.08870851897961742 -0.012773417435339525 -0.07427144599327871 -0.04258642297628316 -0.046937865536774225 0.04690377340075366 0.04308923945414266 -0.02854341164244015 -0.006879641583132945 0.02164576215133322 0.05652218471215122 -0.06930698224212448 0.005909695146865285 -0.02676734028315631 0.0352242094274496 0.0610416045562165 -0.008655569037245636 -0.022026593650150746 -0.06546129530164888 -0.0266748171242159 0.03164687806642226 0.04576694112051667 0.02384859265133351 -0.02394125620147794 0.07884062530303886 -0.057359823100153105 -0.03596569667462876 -0.1217266014309757 0.010728997181258127 0.014564455756063995 -0.015830043045946943 -0.0068243804179382835 0.05949888282434987 -0.034843303861425826 -0.10140543851340583 0.059761404544956986 -0.0006248544715891622 0.03069969445495501 -0.11620495758227628 -0.08499977532250508 0.012777314253892886 0.004750287745778089 0.032836525725275935 -0.001540187315188342 -0.04366394463978496 0.07514233191825517 -0.056759949839472315 0.03714773564861528 -0.016903324318617984 0.04817677399384748 -0.1017825684521404 -0.0457970386541164 0.04866898465386639 0.03071286506783382 0.03595017157391172 0.029425358849904534 0.008315046935556689 0.021348765159674737 0.06448954037388481 -0.021235942678808968 -0.05311022820116427 0.06313338683113139 -0.03642260734328384 -0.018286129237889467 -0.02450093146252034 -0.1000372211895039 -0.02422972860782753 0.006312287480596619 0.008149213741293402 -0.005861858904189386 0.07278316533202712 0.015292904993216129 -0.025510459279325243 -0.13396997467033045 0.01915405688187208 0.0006733232096300952 0.019335666729854706 -0.032377949748898655 -0.07730103645156607 -0.017022514512212896 -0.13516609449159778 0.00017006400223935753 -0.08227620500521102 0.02517367082896472 -0.0007783042832042323 -0.023126417155805844 0.04497839431265295 0.021354001588092583 0.012057834930305631 0.04872189783486003 -0.07744450097209646 0.008440302887739738 -0.06456168060294115 -0.005125734486001128 -0.13041136832871245 -0.04882797617083118 -0.03599258918330583 0.011435327739409902 0.025125701638773545 0.10008436070021966 0.08452523290332047 0.07272810541030846 0.06093681018165491 -0.011807296625416836 0.018120941256926183 0.061536328337925876 0.02436523006331521 0.008231377316984274 -0.018268926710749166 0.01294801449446324 0.026857265746998406 -0.00032788300177996767 -0.058856166381227266 -0.01747244982412465 -0.1320300007684114 -0.025713195570520146 -0.0693360396111984 0.05094663209625389 -0.010359810039718547 -0.013425717737283769 0.0625639492765649 0.026644891341674786 -0.09903864980574484 0.08588219410736156 0.019785061883372215 0.08659603803651165 0.02362200303139943 -0.031249030353148466 -0.05041666105569312 -0.036521055772465685 0.11096543389766783 0.021299198987120904 -0.013293639344562925 0.022419212266281987 -0.040524925062121235 -0.06697715202697832 -0.04837783075421839 -0.023212933183782796 0.06867379275579295 0.03253171571177955 0.09481130930424603 -0.03086971601682094 -0.00249019712742203 0.025886946706409713 -0.06043243489051501 -0.02765813651215316 -0.053380659417803865 -0.045526281305652345 -0.02357704505791687 -0.0009136229896795807 0.01136246328812716 0.0623052830487567 -0.03008693585023672 0.004351155567749067 0.033089318291486355 -0.0833828918043358 0.012038954902363092 0.009422374288308877 0.0390536381832711 -0.06174669579795641 0.07142214736830091 0.03101128367152077 -0.033937343562917874 -0.04933531672084786 0.04377169186992302 0.007156794698661452 0.013983123837948532 0.011599141946236314 0.06757644166500042 -0.005840848233318589 -0.0042952834575991534 0.041212564892885786 0.05887166630100799 0.033584273318178065 0.0608474954722001 -0.03596048376945602 -0.06029973697005412 -0.03315487691920369 -0.004162702021253509 -0.009476865213408714 0.04564622583668839 0.03244007766130978 0.06316792352487353 0.08136039233605266 0.06066933279805552 0.044285892576828356 0.05403691254337127 -0.047666963997196936 0.09330927317215057 0.0625666127669026 0.027669725375405588 -0.044230160313449146 -0.044402813135037356 -0.0020956126313930743 0.03429579871636357 -0.03783817645245699 0.040838541762151084 0.03798469710882404 0.07972657612019332 0.06537690550488903 0.07259855753097329 0.030363667370315123 -0.014339550229535845 0.059753791340082546 -0.021459003433684294 -0.0629281470804961 0.008296387462563485 0.011442886771956843 -0.06514187192048178 -0.05966367730433407 -0.03586690232420016 0.001765149849247672 0.07482479565903752 0.013622753825862071 0.0008794461188603897 -0.025983820895448265 -0.06891096639589063 -0.08857368492063539 0.06228958828102176 0.027905807843588783 0.007286766300361973 -0.07353224694371407 -0.060582986392162835 -0.03590883135303299 -0.03324728659453326 0.02949265488813966 0.018615476851313414 0.05484996845930445 -0.013655055611739584 -0.05413125710999546 0.04827966625609211 0.06425542805883226 -0.04802617904526186 -0.07175650744791018 0.001608539729482164 -0.02027782030655922 -0.0030252436345711156 -0.027422519429373175 -0.08046721655748582 0.018879195619759752 -0.03164081932300249 -0.01948950288637574 0.038013191158619876 0.021892746901991916 0.03148032583178788 -0.09139747588257513 0.0019520748821886369 -0.0702699951115557 0.007017906502061366 0.07424486989366469 0.04853276994963721 0.06787343752560968 -0.05683813760741218 -0.03080890071368844 -0.025254374334817097 0.09367131824028173 -0.03719314384184703 0.08105549580484052 0.008095135305511727 -0.03576473641066707 -0.00770229641445568 0.10043370745769493 -0.07538458170145973 0.021999920028490345 -0.07357225389602133 -0.004399234439803875 0.04488393663101651 -0.012640670756221084 0.04416593856421316 -0.07144124797301016 -0.00026884237823205493 -0.021527028739661554 0.041785604769592866 -0.04533650094325446 -0.09343991928976188 -0.03713019541675002 0.030572020285653007 0.03501004711946828 -0.005348997815848365 -0.07801440602313334 -0.0855644172100439 -0.10144514779273207 -0.02739416900571516 0.014775720472746612 -0.0006460274337614692 -0.011450275449634811 0.01838367339668327 0.005466023854584985 -0.07180964498910056 0.022597157966367843 -0.038061777562198716 0.06518950633147579 0.04106365473958179 0.03304681456523939 0.05124826260136603 0.013673616667835401 -0.04141885962213283 -0.030059324655822256 -0.019869447570256993 0.03925097088030671 -0.034615442270322316 -0.059251983577970894 -0.07943657323061319 0.018094200697169157 -0.062311882714015256 -0.026960402932235946 -0.09634217440002657 -0.019394128027840487 -0.006708608246813918 -0.041055252795433705 0.06144486870286103 0.05328018241485786 -0.014641971336075161 0.037398487001138854 -0.006951309274665232 -0.06489036091902388 -0.0011443687942890531 -0.016830604584609443 -0.022520517056235916 0.013240340076260725 -0.05607329462294138 -0.07418717553991974 0.014329126059742748 0.01426550381699249 -0.005027035088931092 -0.01456236676397921 0.031619691405513746 0.07227027845476428 0.05545812462434205 0.07039177033157823 0.02627996443512274 -0.07730199210683594 -0.010638022913179026 -0.10319482441305473 -0.05493635198028118 0.012751194401351055 -0.0026712572869639585 -0.005704175350771062 0.03722657619234677 -0.04728150674455528 0.04571781151590844 -0.04500126176996057 0.07085177036159042 0.07238486824840583 0.008136297381277755 0.09406671129867705 -0.07128915732015333 0.0012693330390013168 0.01449749727596973 0.048058309778744715 -0.013232936191626722 -0.014127534707846117 -0.03116919962788612 -0.014154519930287941 0.07137449936972655 0.027595190866211036 -0.07120091348951903 0.01563167934147251 -0.0014659082388981633 -0.09720203597148046 0.021850367316766317 0.02179298990306983 0.10423148991662443 -0.033523005543734045 -0.05518195710923829 0.07074648271893183 -0.021004522307711406 0.031043254894357643 0.004122307714852806 -0.05821903840972877 -0.016588546801520623 0.026539925512375353 -0.03428385536317481 0.047738407940493215 0.04008914311755601 -0.10963424304673394 -0.03557828600878833 0.03199020136345561 0.0576951630148869 -0.026310778139107906 0.07131151409563259 -0.01773856599387453 -0.041326459491612476 -0.09867174333196282 0.0951912787383179 -0.0010834300717260982 -0.07802207869281269 -0.02566932407082369 0.01282854536583957 -0.02031424493814276 -0.03330386164113634 -0.07961907410362723
0.063260417288361 0.00812152498201026 0.0035000174223957696 -0.05607528470903443 -0.03623504228601961 0.02357303701367944 -0.0012668458393290906 0.009447765974906656 0.01648915180282542 0.05496934993082736 -0.04602554706714263 -0.001897542300279534 0.01773508132388077 -0.07861112693953204 -0.023365733645461222 0.015332332821809888 -0.006075771410177421 0.014110098261878269 0.09101221844055946 -0.06983789883886962 0.02003467308336343 -0.002780814832085363 0.01616851929997512 0.07778831972112432 -0.07347214821785741 -0.008536665560474157 -0.019103407591139654 -0.0013185603798348095 -0.005304362990012878 0.0226802975149251 0.007275993958985874 -0.009853897696243313 -0.037387712774794864 0.03146602549954779 0.011060270488874932 -0.020709165197374375 -0.012871793610841236 0.041293731290261926 -0.04908065151260506 0.015092167751544885 0.04690227374464063 0.07495703115912576 -0.08598297892113113 0.01555122094723945 -0.025721985685518863 -0.09631071745307886 0.08260171512376777 -0.0016003747868305763 -0.005352896657408893 -0.01344066312342808 -0.012994586858763257 -0.010692230901833886 -0.04667599818897417 -0.02530337997566281 0.07992481618982554 0.004237690788833622 0.09010708392612582 -0.004269510381707335 0.003667771149396716 -0.0766551121993583 0.1024184704988181 -0.00044577152032386144 0.012613073584638354 0.019079409507022884 0.01613031458043886 0.01689781988133765 0.09010824559254826 0.01224288374803399 -0.0012206548330958144 0.09150217515791464 -0.015665846452560653 0.05119745513390205 0.09733883292585427 0.13701229935302983 0.08953972249188606 0.05542481018408195 -0.01143396912023521 -0.12125938147383504 -0.037339097758293596 -0.04321062218319575 -0.028302277603052896 -0.07758343481710908 0.05287702446858984 -0.011086565475535033 0.006547388198467049 -0.005816262715889425 -0.0009584757844571742 0.055666346069272954 0.050055612488933414 -0.018374573065068917 -0.058900040576365824 0.0770530389713255 0.06704448146334427 0.02217790780574462 0.12139882187269825 0.19292083713563649 0.10603451798053398 0.05264860085577539 0.07648721785143307 -0.09120235302142429 0.013043205766227283 0.010085941632054528 -0.018356443241506773 -0.013257778067287227 -0.03293323325672791 0.025933316940372455 -0.02647763731116894 -0.00884371980777137 0.07443686855344374 0.011232627976965599 -0.032359217888719496 0.06216218994985602 0.01323460760844685 0.014219559608117487 0.04484907545561253 -0.05979085002072102 0.017983471314409256 -0.047481803931568645 0.05647451213707372 0.09528338794241824 0.025934409569511117 0.018938374324316436 0.08718379585391413 -0.061331901441421637 0.02109066472970052 0.08615982951462803 -0.07036409206732015 0.047429927370621836 0.07410264980313364 0.053799263906588374 -0.03230906252796781 0.05489649078753537 0.0491754677823825 -0.11125288235989134 0.030335849037550325 0.044269752812797145 0.07933688723539713 -0.02300976375237489 -0.051487472574201616 0.08321053690141486 0.005521795959629019 0.036108323656474095 0.0926521450672679 -0.1116368239846529 -0.014403836805469132 0.006850320380533396 0.0063065667481361385 0.014288344022854508 0.006793338058354948 -0.059665495119795964 0.07494277340445281 -0.04293616526946691 -0.02607032368932383 0.049162456320162105 -0.07300255516989818 -0.058141206660199535 -0.010688290551763254 0.052223129664424536 -0.08957403383127857 0.04736131561092148 -0.022994277388163262 -0.05359751033779791 0.03082346573237278 0.06589129862969487 0.013887215426186194 -0.04074468146008805 -0.09407530725767929 0.0022911488056877043 -0.07252022153358903 0.06238561940913095 0.004477728710544958 0.011037480411878388 -0.07508463069283859 -0.043789205043979616 0.054260138069916114 -0.008684280612451422 0.029565241966155224 0.03626762619455746 -0.061600801670987165 0.024977641810117766 -0.023831234407476316 -0.015443317175092362 -0.005942092036209242 -0.004826925238487252 0.031728050495943 0.02337588269157707 -0.01907417086773061 0.023279271679951377 -0.022884231763254118 -0.04228876930980515 -0.08109871291116687 0.03324068993550475 0.027120495458704756 -0.012946563303126647 -0.08560574325547288 -0.007787281212743912 -0.023530552396578933 0.03455377187962475 0.06965269141210714 0.01576545754326928 -0.014023345155322895 -0.012551781352943575 0.05817377215544929 -0.005718964512228736 0.04258317293609606 -0.0023448555898121534 0.0691355128612951 -0.02117534511572841 -0.011058836453804552 0.05791232949736742 -0.034362720877227165 -0.04209471749329104 -0.008120942687788242 -0.049552168475575906 0.0853160856989955 -0.00853610430391136 -0.005208263308539093 -0.10706803938892771 -0.02522225130074191 0.03772695047120629 -0.006798391400746285 0.1415374436410413 -0.032853533555901863 -0.033227611339807096 0.00023194695158578802 0.009525816104100868 -0.024178936142380498 0.07297202314043974 -0.0587307187699111 -0.040616135116285784 0.05051455302688595 0.023115758518337765 -4.1118471076555106e-05 0.11789535046860253 -0.013713218315532565 0.05305023140702929 -0.034206063936762135 -0.015111756156233974 0.023225346659279746 -0.028321517140794266 -0.09124272250633812 0.024980194607193012 -0.02753955837427005 -0.08307114806587206 0.030318515875658685 -0.0030339296142621766 -0.036352173189568404 0.0634102427665517 0.051973756896341365 -0.061072573582797246 0.02342438020187456 -0.010573754832627989 -0.02230444709764746 0.05807816281386151 -0.022231379783401 0.03074192229174474 -0.01571695251290655 -0.07442346970048204 -0.030896067393809627 -0.03872366040218179 0.060076425676672096 -0.02274205524778143 -0.09694394235438186 0.048042291150322276 -0.010967875772723665 0.0030882244080817018 -0.07762519612658708 0.07156761909228855 -0.0943340423068465 -0.025176859676860744 -0.05884459620426348 0.04671008208035449 -0.11214203737714745 -0.005516099647882822 0.013082324874206037 -0.06312123141739197 0.12378465705241673 0.026644687804375553 -0.04711443781435034 0.0046722266913520275 -0.033587728008905 -0.09698883671790187 0.04805873323383116 -0.07237007225330667 0.018798919645343096 -0.03436799014442903 -0.11885489185455338 -0.0011321290634332504 -0.049953468714171397 0.08086635288082375 -0.0709264159406386 0.04102701585003908 0.011685239392938078 0.02598333763872579 0.005192803380905656 0.09161804168883286 -0.07703353077462326 -0.03418735089543608 -0.03411910081794728 -0.043756150346119155 0.009118614126113582 -0.09432809985473255 0.0021750434207891073 0.12327519706033387 0.06204799312987242 0.02407632829899776 -0.08895769736771884 -0.0004604993736924683 0.08369854272332261 -0.018192741067096476 -0.034512927265403934 0.056811484789347125 -0.029666183351407024 -0.03183216658058061 -0.03079678690435598 -0.04069364207400767 -0.05984843631273478 -0.02281539117273945 -0.029689193275454558 -0.0320387084830904 0.023892995380219186 -0.08548695810901176 -0.011210970085154854 0.040602415182446526 -0.05105080940313611 0.09652782859408059 -0.0036595570278393948 0.0509096129787883 -0.056466843490649794 0.0825274610872568 -0.014171627563381618 0.032332910236136984 -0.11078473341080881 -0.039035706128718616 0.004095107397070326 -0.020913165757885956 -0.12346466176188295 -0.01156482677886656 -0.011245624161468853 0.006295948542158324 0.05360620213710042 -0.08355873990940031 -0.09788625714939471 -0.04522396688802457 -0.03035313337359701 -0.027807860629561473 -0.039475520667849436 -0.0357666991433312 -0.041232322637033886 -4.790952984564049e-06 0.10395993589210921 -0.009625540511826618 -0.007820672780422182 0.09330209427041325 0.03460597604631077 -0.006654632648649184 0.014822986974775167 0.04050607455865227 -0.020118965093978078 0.006264790325577862 0.05926900115036051 -0.01956910935815563 -0.09018013618605043 0.056996745531992396 -0.11953113828597081 0.02002097394572882 -0.04068975642484564 0.025642471892007763 -0.007730961907641918 -0.052982553800934265 -0.000217124166616293 -0.0984503351053339 -0.03083114891932565 -0.0758209169417844 -0.06190746118097225 -0.06419622815518465 0.06406634193249391 0.043656388406638186 -0.034573832578870436 0.005151392694712202 0.05073154865444089 -0.11043830611102044 0.03149174329203971 -0.02330892035001395 0.0708500945844665 0.024050906778763315 0.002388158476942699 0.04977496854362317 0.03208270706105555 0.033308468776026105 0.05193469320955883 -0.057587740375987746 -0.12231379443726897 -0.01045234908464614 -0.052601594732073605 -0.08576813141288124 -0.0013637819269945147 0.07702405929677072 0.030378703649585424 -0.0450626235829154 0.004657223773134321 0.003581418156268381 0.04712019418325127 0.05550801056453893 0.05654556072662837 0.06221852561059985 0.04683794186102812 0.020438505240122393 -0.0024899431091591124 0.010268415509038923 0.012225449287547999 -0.03593044746064839 0.010643374219890192 0.08152662764194155 -0.04763291684137495 0.05414927839191311 -0.04275192283928262 -0.005237281756109411 -0.04227999746641648 0.07912079839853975 -0.05695543607776049 0.11062600179044582 -0.013375143750146054 0.05898076073498371 -0.0032773483918031635 0.12209224254731059 0.028682326793317444 -0.07169587013184957 0.044039969503360796 -0.005841366517356154 0.057968700295518476 0.05082992405710724 -0.02737291970694746 -0.026493925172451898 -0.03261671987319545 -0.03024540618053316 0.03195985836037179 -0.03956697363796866 0.010828089168616516 0.021966304860294026 0.0266720956753161 0.05035324240438287 0.009618078812600614 -0.03812848250336847 -0.02262522496912436 0.024361937843764305 0.07866089739345265 0.012608666447707173 -0.03550913963243301 0.04055512035649696 0.01826696879972412 0.0537068293587376 0.018772635624359296 -0.06805435112772215 0.03485385826091899 0.04463588545391314 0.12853986396177128 0.02726315772216882 -0.026522135600235967 0.05374580555863629 0.07565009897876585 0.014346799055484225 -0.02601578787384375 0.0365301103568224 -0.004869495297406677 -0.035832726125161404 0.025731449081325398 0.008043554937514517 0.007228133731152401 -0.026711177274786373 0.07204773526517932 0.08508072945486918 0.05337566766940396 -0.1016013611246352 -0.004131931558557802 -0.04455086271772594 0.06585804238004014 -0.018208728473100233 0.026724728142502083 -0.024636833898804354 -0.01685707248749089 0.04044057976143376 0.04718405875529699 -0.07364620200134535 0.012384902828711762 0.08731169278805408 -0.02599882345781637 0.021082423223565787 -0.08080401715474449 -0.032771507179404004 0.05994857556917401 -0.03318028544701035 0.060342408057227445 0.005671223523564318 0.04812177019275403 0.026592474761408164 0.046301337119329544 0.024765060692181685 0.05747124764845925 -0.02931961180401585 -0.008584864528908265 -0.04361568606595774 0.10580418900674943 0.056597413752806 -0.02211906624407686 -0.0007998893460937017 -0.01065033149433801 -0.01455936228862821 0.008992645881509899 -0.011088219726455368 -0.09535570168527067 -0.04905959639084168 -0.030448123233618483 -0.0154790566159208 -0.059404180477377104 -0.011351495874762628 -0.03332971732927204 0.009917485936308992 -0.05989410895078334 -0.019345098921233973 -0.011933977360147171 0.04357010145525878 -0.040979692166954525 0.052442273773564536 -0.00847788865932169 -0.03688924702824447 0.04411116635444424 0.026365391857959067 0.04292016378221296 0.007977146601882517 -0.006229292886620246 -0.03145230674642571 0.05105660065628237 -0.03427465257029598 0.10000089769181551 0.003984546385410082 0.0003454985585043692 0.0005943697497497666 -0.03769416808832636 0.1735837680700218 -0.009189628016884277 -0.023180751015563206 -0.06555717971819264 -0.05807582270258907 -0.08925468783833843 0.07036308466557821 0.015001571831813346 -0.04588406007500209 0.04762786691143327 0.11766902454901197 -0.01805822393402868 -0.013595017918439254 -0.06641465938030974 0.10720691228991387 -0.013643518043494942 -0.026601226933153147 -0.014179154736045481 -0.01099983321184694 -0.015920010562371058 0.06503813249370732 0.036393563022873866 0.02853939476893894 0.13493617778302924 0.024556572778045408 -0.009007505217872675 0.052181519536078545 -0.02431681063478964 0.022231408980897135 -0.10139515949021669 0.06564066644314229 0.010964942857289162 -0.004316213236239732 0.008571770644393108 -0.020153474986783063 0.005879702811651271 0.021041582075556235 -0.11802589319423683 -0.0265537536390885 0.029023840023730266 -0.01958674071874762 0.0022792163927821767 -0.016647105214644957 0.04024032012180891 -0.01335194089058276 -0.0369039849636465 -0.022561287350101152 -0.04718192334644572 -0.02412745073885427 0.056623352877483844 -0.05659106025857035 0.04109610124075096 0.03787144195018096 0.04937904579450376 -0.006466234685864262 -0.023431847378632534 -0.012528895005267045 0.05977801830879688 0.0539635624610088 -0.009216507159069928 0.012652434748655265 0.012113411671936941 -0.030523384890471635 0.00012423007841059363 -0.00012993932552596076 0.013415748931195562 -0.1344724354196712 0.04648537471965528 -0.017616136843859886 0.029845123749059066 0.010662451508450025 -0.07066821769053583 0.07074342669388328 -0.04391834122672561 0.02642371217733295 0.08437217916197752 0.08082928889580421 -0.023538274681919658 -0.045969204432991455 -0.03641831750547384 0.1330748489995582 0.07757142580659386 0.06656766794544364 0.07363385594548608 0.0065481046117811265 -0.04107939839942828 -0.07299929121809104 -0.02151157519708845 0.015093409897156587 0.02010858365140864 -0.04015057617563949 -0.02535763200993983 0.012236821438273924 0.046460990905185434 0.034246511364883644 -0.054773445145822365 -0.01509484688435565 -0.09240461965075021 0.08740699404878044 -0.09301822595287156 0.004743306828532193 -0.030528169252669275 0.006814422841182614 -0.018224562888834676 0.02492403359515903 0.020749793935009475 0.12735850819991001 -0.041407705005447694 -0.022374789748317622 -0.07543419307881878 0.007736771531461323 0.09005275380892318 0.023684688528136447 0.002883743607523415 0.0291678661278128 -0.008131982848692215 0.038073129594191624 0.009948057116356976 -0.037441345716539245 0.045926300387027184 0.0477125402420312 -0.051934032414298684 -0.022250853903063385 -0.023635046330314196 -0.04341178734841107 0.04534284057963268 -0.04811479182337242 0.02626261683308537 0.01859474613667774 -0.025197711811317115 -0.08817985125746436 0.034881177574560863 0.05787621876697623 0.07692925576958608 0.014576769955840443 -0.057644424364953595 -0.06252627494514894 -0.045069322039076064 -0.05165845901656031 -0.040739057939371416 0.022215799401667236 0.01672441033319485 -0.00587282209505124 -0.05010308940482259 -0.07089500599143816 0.02782728566357868 -0.013005952075399558 0.07939924558603977 -0.015019384604564453 0.0051369442271998874 -0.015157028390641638 0.04684310900831465 -0.060878060659767606 0.019554394419178497 0.062296391717189745 0.014119171995017105 0.09014427063672083 -0.0429423784347201 -0.009168054334981537 0.06029391053563344 0.1057764700856444 -0.008573976506321154 0.013399187673745178 0.0995145676810967 -0.0399413913007552 -0.0891631513385313 0.019821453368357132 0.11412909692060681 -0.026102688730601467 0.07195048826783346 -0.021388237778613935 0.009387741880513915 0.030025529588298096 0.022484013854389757 -0.08947857222590128 0.011500069148349303 0.008935743095083165 -0.04945159235229997 -0.10933501349847707 -0.04690914669077517 0.01727541758541763 0.06441545447462478 -0.00617199433181478 0.1103009341314258 -0.05976340802507477 -0.11147728503918149 -0.06904019457743554 0.0723355583416839 -0.0025038104153711194 0.04424129057968254 0.04016187696690667 -0.024313773006170186 -0.025140129553467762 0.08341313410223605 -0.04935658961856667 0.0666265745348218 0.06119111673154547 0.023971196581311055 0.00798144693387477 -0.014967148452782365 0.03928733174466634 -0.15563143344735722 0.07818127620423333 0.045411300673939364 -0.024145340001784286 0.011622388723919012 -0.0392727952656065 -0.00527711975608701 -0.06514079934039083 0.07470041914636655 0.029394191531146554 -0.10723224459540541 -0.1077637033823144 -0.04849449794263843 0.06270413119511603 0.05619628881080975 0.04133386739251503 0.002529563839476409 0.025178350542467903 0.07090877533294655 0.039471879696326935 0.0049863005402010635 -0.08557413020711399 -0.020164833471775008 0.002441430469658362 6.238636834864619e-05 -0.03551640890497712 0.018388100916049907 0.006935658751563959 -0.023285028573007648 0.04993238795213068 -0.026527135778665716 -0.0692056521592195 -0.02898380206612409 0.002346266168534621 0.039046620051400666 0.001120299184745602 0.019164408656036084 -0.01546346679050019 0.011849865777721727 -0.03272850225239081 -0.02903114080016099 0.04669180867984248 -0.0467811827182846 -0.027004162623619512
0.09443417815720904 0.055099682265896975 -0.01317309932374468 -0.0003321447713736017 0.016799467253175302 -0.056520834745861115 -0.025880110962112096 -0.0336656521345151 -0.009530510935227807 -0.00924561461387527 -0.08826752565128687 -0.0851900625841298 -0.007955617255029324 -0.03555757189569442 0.0035606692267388753 -0.0687974607413457 -0.02056692128600732 0.046994643465521055 0.1023233666199649 0.06761381453970097 0.002063794032172553 0.04961637812684922 -0.012026816178115319 0.07550142590053469 -0.07902605072032036 0.0028274546904411405 0.041642937690196224 -0.0027351528834394325 -0.05230428070574672 0.01797487545537294 -0.009472782011337806 -0.05553947508267264 0.017482067667687885 0.04377464087193083 0.061961520901478793 -0.03123996964256149 -0.05667359265524326 0.043480311606552365 0.020749166176527715 -0.06070921020703178 0.00835423604706948 -0.016104915521917586 -0.022306649240756544 0.011924422346335438 0.002418972696414381 0.04389089351329528 -0.013186417622239186 -0.00825101594844175 -0.05430435681905914 0.032140358443427317 0.029743117040738395 -0.08238189795540002 -0.025752977488539393 -0.040153133808338605 -0.015757642340070398 0.028911359892863146 0.027606028473308487 0.02609889796991744 -0.08610809071702748 -0.02656207219906937 0.008425781015309403 0.04336248365023996 -0.023126531464648124 -0.05005161475693893 0.010610509893384424 0.004785699160547782 -0.02091058806031773 -0.010333863984988114 -0.007798935971367958 0.03572609417977424 -0.024781678900197276 0.013256648669236183 0.034511636892525434 -0.00991278205632006 0.09471180049478448 -0.021635757110074323 -0.08169335349127335 -0.08587113247645875 0.010970959276485764 -0.07287468926240727 0.08164637627126127 -0.0085495539422584 0.02108588343468534 0.07136635074474672 -0.07399465275150127 0.0430084665888599 -0.02136011385718951 0.009665158765238775 0.02262386287882404 0.07793974859327653 0.023991825683334154 0.05946773257558887 -0.0417410711068781 -0.027012668240037993 0.00830755371376457 -0.00927037014223257 0.0034303911881872814 0.05091111404665599 0.005315409754510269 0.01641946955790863 0.058389310245746215 0.014283114997520087 0.07434154601633994 -0.009619682820379333 0.034051733859084374 0.05914538883014798 -0.04069457011327894 -0.03596439241987519 -0.05643425436842513 0.05629458284016079 -0.029560962560629598 -0.05790441399107508 0.013329892324784102 0.042966958500760544 0.05016298741480671 -0.03820719437284677 0.012048478426904752 0.017738824036442218 -0.010495394691465732 0.03652496401517643 0.02166575890710962 -0.11489098283016674 0.020933031850339318 -0.03909458424268054 -0.04648409002953791 -0.03892808387936614 0.07019696378387999 0.0036452053233338158 -0.050450917951184435 -0.006404207410830217 -0.020856778389193895 -0.02115896207260778 0.05567936267322001 -0.008881918850793532 -0.05129530256597885 -0.06960717879829796 0.18631444837006217 -0.10366553137812061 0.04543101968577135 0.058750147810504694 -0.029868266538726783 0.027551361887556965 0.060939449903701016 -0.133852185350857 -0.05659156987783801 -0.007443652370471872 -0.017619185260039208 -0.052373879421855285 0.07222556632800363 -0.0063567987085620175 0.08972018830673714 0.05431672117318921 -0.03325994835645036 -0.05140861530325664 0.033755247081117844 -0.09990879048197644 0.06668953478599662 -0.0615771736747346 -0.06905209181603032 -0.02921551922092911 0.034499166476779475 0.025658792890403525 -0.06264053116862682 -0.03364521652085791 0.007485045670530236 -0.008721449529014698 0.018772874064439858 -0.025284059687394184 0.008090558487899746 0.008466966681691376 -0.019569515335217825 -0.02863517517125958 0.05297849378740641 -0.003059126694251295 0.022674066239939148 -0.031233222232960843 -0.007758028698925513 0.00870629109562272 -0.08310411402937337 -0.0465061472989569 -0.03818991878346134 -0.008595637695586359 -0.07934247374715624 -0.018066898268732607 0.013514901224521028 -0.010701187749020633 -0.02481229279875714 0.05519523165190763 -0.018990462091973685 0.0034536302149044255 -0.0452241648781716 0.04158575903254927 -0.04785855553464237 -0.020594595188433044 -0.03131332375063759 -0.06581115852730864 -0.013560116328560013 -0.01606391538003669 0.047820614074200386 0.06838190988352909 -0.03748527145333892 0.08106754140939597 0.08682104059507899 0.040483456188293035 0.00422861672896135 -0.023346302717354647 0.007465426391083955 0.018143870700487903 0.00942944551448058 0.00023979811401638997 0.0039226497571822816 0.009432029863256737 -0.031120522769990028 0.04936872586963077 -0.09100944859137812 0.015950565067941732 -0.003259393634201481 0.006255386995836594 -0.00527679130140548 0.0669048261658548 0.005614587225830383 -0.07392997675085682 0.022037800915532802 0.002952649036837382 0.05909241157610843 0.018039199918106992 0.0008745669531586044 0.0052415169873403535 0.01897563845741096 0.022283035241942313 0.11009168258887324 0.03392824811049451 -0.013581551920967622 0.0008683973472259524 -0.00033651759382926873 0.0048466373340946434 0.04206212103739998 0.03558941360015155 0.06247794587960047 -0.11464667727579715 -0.0034045029589199836 -0.028720437031981908 -0.0032668809730961525 0.010451337009543721 -0.020585935949286337 0.028414911859269237 -0.010808698231211073 0.05868673221021861 0.011587973027332044 -0.06799132822714109 0.032655481956119455 0.0007076766130697252 -0.06844280480041183 0.02358204330066939 0.030520015483298732 -0.019433697149577427 0.034597087794967625 -0.02715182809454293 -0.0087897876466059 0.018504973218107096 0.019612440376394282 -0.12508067128864572 0.04339300176181276 -0.007969319482823938 0.017314810298785472 0.03206503625294762 -0.03562455690869136 -0.11510896317313508 0.10087821518267832 0.005802281023445798 -0.026754373009066176 -0.09494107904364865 -0.0004529409282798542 -0.0361877356790221 -0.0787617128542416 0.06867375187812819 -0.012380512791162613 0.01206083370388129 -0.033047974891532786 -0.07068308302958524 -0.09743460859737905 0.051097369876380826 0.10415650506896361 0.02684535561836213 -0.029955434418942307 -0.04593223610259118 0.007916649798917859 0.06306719429525241 0.03613377175467854 -0.009306685466525326 0.054834649720316306 -0.03179617211782688 0.0750814061333787 -0.016848169543871166 0.031625674314490974 0.044324769716969116 0.017437981021028805 -0.005887850781671919 0.024601564532410896 0.012799222335279224 0.043019370364819 0.022984081857030363 -0.01854158608790703 -0.09492319271165627 -0.03610024447527712 -0.009464686176122944 0.07511109478820362 0.0650007775113895 0.024422175828972385 -0.09981397739854755 -0.0361446367499533 0.052429683997739535 -0.03540799997398768 -0.003809424421511149 -0.06351220149155815 -0.0382117557532361 0.03146941232264905 0.03332558322717426 -0.10070831666222693 -0.03622914609070562 0.047741622976238164 0.014856808106745552 0.0055781546723176895 0.014657469587882119 0.0678416064174646 -0.00594497354059256 -0.02319906632974206 -0.0751752793766922 -0.024481154346171614 -0.015353886760720909 -0.011219855138725018 0.03421689932255112 -0.026901828676439293 0.030576411522045086 -0.02624022854281106 -0.04331349279809872 -0.06516409005451933 -0.006850636435635439 -0.056882015478652445 0.018002722724282227 0.0747675139814942 -0.04336737227326464 0.035850100580588774 -0.05244850912756299 -0.02816266568664906 0.02899988090535892 0.01596161417106843 -0.019505035494189683 0.007667698123526084 0.024255831324221412 0.04859937388894862 -0.04655558419355173 0.07170166894006652 0.007204510208528328 -0.06288884661815786 -0.04276417373109477 -0.10472269385523425 0.00578272256223397 0.03644360359479343 -0.07447497805197298 -0.12539809682905428 -0.07102587631285942 -0.03436040698201435 -0.07304442961550706 -0.021993671306394545 0.03216763015024195 -0.0037251159565482826 0.026504181824711374 -0.024509061156842746 0.03380799111506932 -0.03252674554208857 -0.07652529856890725 -0.04855725785985848 0.06568768798383605 0.05623962810116165 0.0117471121839689 0.02946608746726751 0.051486401240579925 -0.0687786438666196 -0.06227725717615788 0.05753990188028606 0.0019786940909833203 -0.018444992034776484 0.056407435747350236 -0.03090994571274996 -0.04621064586597635 0.00901177368908498 0.11060497056580239 -0.021335401722698964 -0.006014595369899218 -0.06343632073365994 0.012918971984372687 0.0336920444651104 -0.04175522655658744 -0.007202415539638641 0.00234241799835453 -0.02351570755083797 -0.018547255792469467 0.0688783332540485 0.01562137453955802 -0.004393933380203557 0.008559179213949235 -0.04626505415396557 -0.053225864682633094 -0.06442987154966556 -0.009320984672115546 0.112935788991915 0.05401207213303585 0.008621333686337225 -0.06934375352856524 -0.012007448157534396 0.018701619220415657 -0.02588073125229277 -0.04803718949349744 -0.05592100885928845 -0.08477549581825276 -0.06486460105914013 0.09444339423190136 -0.023441827066302365 0.023257339070436915 0.005487770569274171 0.019846068599983096 -0.0626363193742156 -0.00718257302117501 0.056547593267900924 0.005833613662212354 0.006146395082597006 0.033256154727393364 -0.008726099971407636 -0.02861124009544078 -0.03276659529981041 -0.11876222479468597 -0.020144286292511956 0.009418081756903101 -0.06497866213770842 -0.048656701517123764 -0.006827228494054066 0.02129038391049724 -0.07245315569106349 -0.013259753027861247 0.008438521584162374 -0.12407568581085444 0.02232032604931781 -0.00219202735482553 0.0019915349594011437 0.10690427762803952 0.002229242921159659 0.0411830435218859 -0.0527225587368316 0.009205443495288292 0.07661436271707854 0.013414070474441795 -0.018824052284221206 0.03422523824812652 -0.10952643834404623 -0.09428598059982898 -0.006071944815764275 0.07706387393390204 0.0017151883496847803 0.050728136969367024 -0.014958792641821305 -0.00824284083111687 -0.026046904850433036 -0.03075354990506729 0.032068659979811384 0.12428568859802919 -0.0615804211698021 0.02573798249635669 0.029737744766230808 -0.13479675258945015 -0.023124515215040792 0.10367638349967509 -0.035197832883902706 -0.006987929743497669 0.04280838801195725 0.050117497793797997 -0.05672192498672804 0.05730340294079846 0.007065368349071323 -0.050633142938120476 0.0014542910928966857 -0.022726596099106294 0.0022764884054094488 -0.009559843241026447 -0.10824558419705481 0.006319311062101136 0.024947538774089232 0.03993531696880381 0.0012438705879817527 -0.010961833421265102 -0.019786872678212015 -0.0922056497730342 0.07261470808913127 -0.05961885416771891 0.08133250111372727 -0.07509715483470707 -0.044857620364903456 -0.07745977471656879 -0.013228287159633582 -0.0667155858480593 0.013957678113148369 -0.05687868566139797 -0.04645539967243236 0.014604632570664687 0.01173443077903014 -0.0573382719435205 0.003967784846877134 -0.048966961469389975 0.0801018054046061 -0.009801572163847595 -0.028600007044075955 0.0140027341323355 0.00010284345672372402 -0.0014123053862731849 -0.0377486316893934 0.061454143418545965 0.024269243061256024 0.0119596581086247 -0.027660731212022577 -0.051861353858025476 -0.11869086264461895 -0.050628839655513624 -0.06371620306029337 -0.045219094780001974 0.008650815846213201 0.03235704570598853 -0.08048400862364143 0.02811607340422569 -0.06332417854687772 -0.0503856350623867 0.027001653200671265 -0.03887979683971973 -0.016217548038420956 -0.06712516556649956 0.025175946816095977 -0.008584471786615082 -0.06401475372018786 -0.026073445148525953 -0.12210347685929338 0.006113816518079024 0.04192745642931808 -0.03685786023749225 -0.10632703358911623 -0.03437479391565348 0.01236447413927539 -0.029735543212901745 -0.06466648419212798 0.023610324797514022 0.06306337213071886 -0.07752009423544273 -0.015942814145076888 0.029200522137059214 -0.037746948157274876 0.11643790149225702 -0.03699127411433215 -0.008799387770187244 -0.024804759688939224 0.049091354362118804 -0.04832736485492039 -0.061183191457802585 -0.011269967700178407 0.05568508331146513 0.0429470921275289 -0.01605064291945279 -0.10310155275573436 -0.007054008156054026 0.009199864495884906 -0.029903991130471354 0.03502951841335849 -0.044757227597851355 -0.07290307278852376 0.009940266375042715 -0.030968396818392994 -0.05328127910922107 0.07802525268570196 0.009585657740711852 0.06712531188382084 -0.045935935014441494 0.031812841101313646 0.04085284131935904 0.009181109492503262 0.029839276203682565 0.005826646504217408 -0.02393444427372724 0.031052368640571686 -0.04096550573633479 0.04874847041799256 -0.011469952777843708 -0.0012619920310837178 0.06589479221940722 -0.03060222126383467 -0.06398389136572044 0.06962846616166275 -0.031455470081646224 0.01676557969033971 -0.06922719974162675 0.07010880645221725 0.0022410096460895278 -0.03183993046402749 -0.018311443140248514 -0.03034187924737692 -0.006051368108077125 0.042898012015370544 0.014631602687596034 0.0548494677046561 -0.09893828985824901 -0.07406334515130453 0.04842317363875365 0.012964992966120208 -0.04659997118685104 0.059221783979191325 0.0034577679053014528 -0.004923771287310571 -0.05624621521695349 0.027826877838828465 0.03484615021439807 0.052787316665569295 0.046331570267455116 -0.03249921245664211 0.03389045307332878 0.030404589797583405 0.03121550132224758 0.008981374458601152 -0.004724614675684037 -0.013043752042085006 -0.04044947651217758 -0.11189572751759731 -0.09021254801700143 0.02164794208525644 0.012473839333104505 0.009694883794674626 -0.04565272289622579 0.0005002012666103629 0.08652886921685966 -0.00917630563195428 0.11719338564657318 0.07005397144655483 -0.04708628752680443 0.005936033407458777 0.009867458167648637 0.005373031672318138 0.007007630841368253 -0.053019155032951105 -0.030209971740796916 -0.01588325057794816 0.0035685590255478544 0.02964817223551409 0.0774838894547329 -0.03622360415468608 -0.0732247384450224 0.016093392775508943 0.016152195665509538 -0.016271342619190936 0.05904500868055638 0.030319556557233507 -0.16556108691424484 -0.10949425813714611 -0.00977854200752594 0.020874633323697468 0.01869389279339892 -0.03922643956954631 0.03851406814595623 -0.060035979933339395 0.06382094805939846 -0.04376684692759367 -0.07623076851589561 -0.004793042534119413 -0.04460249733998121 -0.021911346758173533 0.09128629668114605 0.01799319604139482 0.007881115533073049 -0.00607910343243724 -0.03105905172691521 -0.04012002611194415 0.06629809968278738 0.08503813128952431 -0.10247333267423442 0.04364469917802529 0.011811741573582378 -0.01259219112183066 -0.003255993843711475 0.031690313173873476 0.07090549495912117 -0.051801659142262105 0.004972332338866634 0.03294811019483871 -0.06083914497357367 -0.012354267127429009 -0.04603861605827952 -0.06419887117128661 0.06227287282980779 -0.010033659234469501 0.06013618022199129 0.018495100642767392 -0.024134787098908893 0.010082102205477091 -0.008363357186009808 -0.044257168909138014 0.0169913803104575 0.030040493250977796 -0.03529407049437136 -0.005111065468731433 -0.03086994068662857 0.01245525887169641 -0.04507882901552126 -0.0074209966259065575 -0.012466704271791989 -0.057065246169519974 -0.01308376337015315 -0.12925467443106692 0.0018995813014323377 -0.08894238601878675 0.03630462560197881 0.09938336614377646 -0.12427688403884714 -0.022444073262677673 -0.019294268174510347 0.09541737281019554 0.10424765214435215 -0.07122242266137971 0.06891302003504518 0.14160935412660275 0.054178655647155564 0.010887876273154073 0.01694957497968648 0.03525012298529002 -0.01065263686147032 0.024184351846776458 -0.10736506655701213 0.0224353034820793 0.09762580012862077 -0.04664440703199828 -0.04243167682836785 0.009738334173657479 -0.03916691876490644 -0.0223078324748025 0.07158406046123471 -0.12368610316354293 -0.07067446755979075 0.008251274383051808 -0.04254361899702498 -0.05862120402750215 -0.021122934335560017 -0.06777369924392611 0.008061821558089514 -0.002409188910451472 -0.07300665681055947 -0.06131546786351772 -0.004958390386012067 -0.07067461477968404 0.02838348397128378 -0.001805309485784807 0.02599877346941118 -0.06556129426709865 -0.03500627508296436 -0.016012568390991338 0.08396087789236109 0.12766732524332486 -0.014558756888350953 0.01733799554935345 -0.029005146954619296 0.006487080921069606 0.021209816881350638 0.021244435574410754 0.048578517554872455 0.007433181778741025 -0.004917529346886434 0.03653920472535149 0.20078813907012338 0.023650619840190734 -0.05903495015620482 -0.02557244084939387 0.07510938779002968 0.033608641222326964 -0.009613215245356856 -0.05480318243853863 -0.025197263059807844 0.025325191684518897 -0.0579418278030777 -0.05395763155763003 -0.013327013045420924 -0.00882675531427303 -0.0028140787426179713
0.04819610230674282 0.045957744983198136 0.06553003028170547 -0.019126702890569603 0.03605228658163067 -0.03952895481510855 -0.04726809503935704 0.041550326606098316 0.02247482585298149 0.043305723421471876 0.0834766733551085 -0.05848671117434979 0.026486786679946157 0.059887147156860346 0.002895689190420688 0.023685342074205314 0.06702833669996745 -0.00845213150819966 -0.00921909478325364 -0.009613005111230066 -0.021695442002908554 0.07349532580658978 0.04847825382305178 0.0420842087004616 -0.041174702582593724 -0.002465255992326879 0.06391154109329016 0.040793724282469475 0.043208281545715634 0.025779726089732082 0.0378406765430225 0.025421598828355062 -0.02858825052714564 -0.07229977074286444 -0.05136151125580015 -0.05895859903851502 0.08311648106918916 0.13911826875535244 -0.01179899111711105 -0.039248738471330175 0.0800446823748083 -0.0025647599879967202 0.034917928745098865 0.025577835581228142 0.08906824758785774 0.07724030885474951 0.008012178888467843 -0.11605413600281644 0.06815972302538155 -0.01941336321596536 -0.027371308392817553 0.05615085674128975 -0.0273875702713267 -0.08055569748631893 0.02972056516521375 -0.007870297808284103 -0.02703673808848075 -0.13982381932320434 -0.02410352352761158 0.0341021043689563 -0.11363059122393851 -0.04144479122179725 -0.049741554065681315 0.0583506414128043 0.05123710149379492 0.0737574100391784 0.0019398788991190768 0.08690410169770238 0.04658111675464638 -0.04484037657055997 -0.013348694873491267 0.02081638552378629 -0.0629288583659579 -0.026251707825715346 0.03380676516517723 -0.0267272403707003 0.061822149837155296 -0.03656141458060044 0.027491714149112306 0.04238490231463014 -0.027019175030743855 -0.02381839209878705 0.11192207436565203 0.040316395501446216 0.005010788251035302 0.11983293682343059 -0.08973290521530637 -0.10797866891066503 -0.007231864058132363 -0.07502348247318287 -0.07149564090811633 0.09595442156577857 -0.00797819239069202 0.011359147220479022 -0.0032808697777388656 -0.03261149677851096 0.10024919197431918 0.09654317418583727 0.015355641970513263 -0.09500963671630269 -0.09724954566222604 -0.0991533241443493 -0.017366924436149806 -0.015995037817299766 0.04162248696930466 0.013297388572388482 -0.08812008231794856 -0.0224193550492326 -0.056443939016422195 0.03464057568699436 0.004608275091106799 -0.09909437381701786 0.02550262113009038 0.026257209678636578 0.012166884104567018 0.013574759426198693 -0.12646915635554415 -0.002131052038920431 0.02725274727055537 0.04580635785738246 -0.03788122357762188 -0.037383352731830403 -0.018031627645787952 0.02346928451789361 -0.06580668292238417 0.02994340574049972 0.03166494412164553 0.03269507342759806 0.008377449898724035 0.02952738775755768 0.09313300476109242 0.05106064018494771 -0.05310955808635971 0.011599704265912825 0.030783836684511907 -0.01987740979706484 -0.049799450600173836 0.03192489266752453 0.016029546576529937 -0.011577423082907106 -0.015745753059449537 0.044193955879545284 0.11489779192069322 -0.034078866775458044 -0.017192936907105532 -0.02310022463126887 -0.019688464594913073 -0.058842317969048104 0.038886270350221984 0.029131546249805074 -0.11326580257640949 0.02523712025114514 -0.04645217250777993 -0.013286364428897338 0.007453455953071882 0.014439663940900535 0.01734456144860234 0.0757092540176121 -0.02720873262242205 -0.09174684770094038 0.03955569940205422 0.046669225118182014 0.0363940276129435 -0.03945525070713682 -0.13598496890128617 0.0016839732572536037 0.02997082241439312 0.004280926541777168 0.008069791178347527 -0.036006174878834875 -0.03138956386007939 -0.05428100260736591 -0.04202259602602913 -0.011008054583637033 0.010067067155344424 0.046757582015043236 -0.00667816685633138 0.05791283820409092 -0.014422844082232688 -0.03474228178117047 4.84373256717964e-06 -0.003950848527035954 -0.03977092303840261 0.0401956723302168 -0.07246908079485015 0.0717008566932797 0.10305112865836345 -0.02250808391379805 -0.0567527124718336 -0.025496226655014362 -0.06425621160063565 0.12038130182465494 -0.03305797347109104 0.10891500617049057 0.04681692966691365 0.03336141469600112 0.005698345808218168 -0.04454271595020987 -0.04006098614585497 -0.03295202342924159 0.021802478454480276 0.01631548161815039 -0.010930068400542706 0.0943299013943542 0.0235559602567401 -0.019768465032811586 -7.917571998122042e-05 -0.021545651122650594 0.023319443595460815 -0.05846772176567006 0.10318263801509091 -0.04132042106301625 0.011040287336048067 -0.040455314548479004 -0.007992763400262037 -0.01889400183953006 -0.022273556216123373 -0.03440380169585604 -0.027658529648609605 -0.0715648985322146 -0.04801865848184284 -0.04538815242617779 -0.014698845350049568 0.07161519228723344 -0.03782322160377332 -0.03454684810416248 0.05628246515850992 0.002169622130871528 0.027630284700715737 -0.006801710459835381 0.043885393448147805 -0.03092891581674913 0.019790711212421257 -0.056868410947536106 -0.0032369543461459463 0.02719505991200128 0.0005084606602249601 0.0111438683383759 0.07484568953781454 0.009470352829104075 -0.03892817527402619 0.01283541111149178 0.02033771300329633 -0.019573880658334205 0.04177839393049017 0.0043733001777325415 -0.015841875413071912 -0.05018328477626959 -0.06179161464985175 -0.07772588169268906 0.0033456220759065457 0.04984541219447718 0.04530429768972451 -0.027285376103995437 -0.11018430154779858 0.053725624357744174 0.0170105711523175 0.04911633385903657 0.045703183846469535 0.010768624378131298 0.022661139549132566 -0.05635551862852449 -0.041390698937374064 0.021547381168010398 0.0194959399314188 -0.01170831730521108 -0.16989987564130302 0.014373897849310768 0.042063616681490536 -0.07884794718441741 -0.07046628757240052 0.015541255071930495 -0.020766375976631734 -0.008926641227017239 -0.02996799676854027 -0.0184000487897283 -0.027028264606013864 -0.0434688214323407 -0.041225819357031006 0.05838042946318257 -0.05248627412358327 0.033994082021082284 0.037051680268754515 -0.0811781638502714 -0.041213918263548865 0.03329038231769584 -0.06974708108696877 0.03246152226183366 0.05245817456578004 0.01839252087472426 0.019384404943251582 0.04771018784371374 -0.0006719674225556957 -0.0038575062184702997 -0.061611575423577834 0.016241294635245367 0.09190098686487605 -0.04790661393704121 0.047661563864178774 0.0321184810072231 0.05545645666616436 0.06371021528246927 0.013787773509412004 -0.0102026922263474 -0.04756570109011333 0.051471840255407894 -0.047182351114674656 0.08145560171017499 -0.05266235537097981 -0.03067762746022104 0.013099702559254276 0.08602117049807435 -0.04534264080572533 0.08417157269586317 -0.1735473618933217 0.022128961509757347 0.013879888306165818 -0.018217773533024048 -0.068893144016737 -0.018392932911083962 -0.03393981928677794 -0.034783781361027145 -0.023914727546439814 0.007402105827021447 0.01472378796010117 -0.06811904392102137 0.0841770665356255 0.08344829148306215 0.02176501107684946 -0.08784144954777295 0.0448815950061542 -0.0015908899277544382 0.013416165417618047 -0.08373142334757985 -0.043415801752773035 -0.08791187045233091 -0.001443807192234314 0.002144783845777423 0.01473459575257822 -0.03696244310552761 -0.01508529080665966 0.03834131996213427 -0.010011549515892892 -0.05361692526712803 -0.019413017361273068 0.06340674828215101 -0.04920846176653547 -0.03535504583092572 0.05434279667042592 -0.038245127629991556 -0.006547196300192958 -0.005355373296785407 -0.04333874619723951 -0.027515220913452838 0.012553693718723726 -0.0016154469539426844 -0.025195408660406565 -0.05769606633996172 0.043930940017408715 -0.02339277933955892 0.05572223329144792 0.0012665182760959325 0.06904862130032212 0.040950005561250225 0.06194775951591215 0.023480782175709255 -0.015410064279184631 0.035990291527323415 -0.08951268714311837 -0.021222227499348687 0.018286114541630642 -0.020968818554916738 -0.0707383995096218 0.02471428098928901 -0.04659633601198457 0.0657567906549248 -0.057836474282646856 -0.020092807777186607 -0.0067649814118307585 -0.009668008574269318 0.03201609464222269 -0.0010937915963319747 -0.10500496140137129 -0.05079018168944797 0.05225738201863995 -0.0495773491672847 -0.03110796636986739 0.008540450713816572 -0.015090949501230005 0.07173579316264585 0.058697786322073196 0.00941877501044493 0.0596016744916271 0.03321525868246912 -0.007044955662927589 0.06136235541722793 0.008228244417102615 -0.002846825374175828 0.012050687903046567 -0.050842814637540874 -0.09296604044413526 0.02985248579115441 -0.029785722495834867 0.001673638250370321 0.01347012173477537 0.013801185493455468 -0.09877589831897736 0.005570052806162511 -0.047829377536552274 -0.06140626520102241 0.06946915487266256 -0.08760008842926523 0.08502988128885698 -0.061097226243523886 -0.006816713625274485 -0.06511034046543046 -0.008063366194024287 -0.1019816293157055 0.09938453487697507 -0.02338524560182185 0.050790097220343444 0.015499968500146637 0.005230902602171835 0.1370389938653691 0.0016529835190113708 0.04242301560804748 -0.01230766793388343 0.02004177614073908 0.022598382389843293 -0.03997648089324381 0.05210706438219041 0.03186500531346989 -0.0013552810087380089 -0.08960556067311809 -0.10501780978859755 -0.01590605315467953 -0.051511536261599065 0.0038698200558868294 -0.00891791668860257 -0.044565435504969275 0.01833156740970882 0.01125608454021383 -0.027728999340580356 -0.031188347856629068 0.03497187690842621 -0.11527124184016682 -0.07248305465859817 -0.06357149429161388 -0.014345433478256266 0.043584307004746664 0.041485419212444925 -0.04965900950980289 0.022391162479101633 -0.010075749131670524 -0.12918096524496214 0.013286444502764411 0.0018648556156836916 -0.0305126353150503 -0.042390105434693716 0.05709670425095061 -0.08399814239889089 -0.04213627941737233 0.06858216884071124 -0.019346432046569124 -0.037992036929601125 -0.006223767144274264 0.010409919769097302 0.12053427805534175 0.02273024561831136 -0.043519462120999365 -0.009805037216199096 0.04907326026704168 0.04788222932146194 0.033774976523959645 0.03285361466844979 -0.03304580663935251 -0.03559301892605266 0.05422404113447851 0.014185254836792342 0.052365433404474845 -0.0054799834001267615 -0.015960725977399715 -0.05910932256281071 -0.0328278913771703 -0.048449020305793164 0.046248024562108546 -0.00458012621708846 0.08033852741442118 -0.09154667629820769 -0.06412559822134466 0.030574305053245168 -0.00024413025727212134 0.0042392629655578365 0.11810876603279077 0.027519847645459856 0.10631953710403708 0.12219958553225457 -0.045473132570801385 -0.019047456415716278 0.012177930573871438 -0.013571081709369236 -0.020666298384600892 -0.05408965014865063 0.022919701649531724 -0.0610224244937424 0.06600609659155655 -0.05551263732600265 0.11408295133894933 0.026282753077284393 -0.012445166088704484 0.0038746732191271855 0.0014145347894112073 0.01800092271889558 0.009106536918996152 -0.0258408271012618 -0.0403620285134577 -0.0028979329452045433 -0.012202147252751906 0.06558813924224273 0.004131403460037921 -0.004939218728156229 -0.06531763251772385 -0.02322938399892364 -0.05791574181346953 0.05135927970403443 0.004328256609289658 0.0753611533860974 0.03278667099571247 0.001789480909678149 -0.0724240759566218 0.10332925004584192 -0.050479105713770796 0.007096510132366683 0.0014236026966855408 -0.018228943708965783 -0.12049851284171634 -0.036275666224745935 -0.03521539917702817 -0.024319958910550322 0.04801566969236379 0.022146534636875968 -0.010341404573174635 0.04481194351262172 -0.04808238576706019 0.030677361353876484 -0.10405933930765772 -0.019747527929185077 0.08496609395043714 -0.009420029108024185 0.03653802315089773 -0.08959554282895753 -0.006928795741797861 -0.05424298003881579 -0.1100662553534324 0.07907153250750373 -0.10147461598561922 0.08453743290247592 -0.06598258427453345 0.09217174834039046 -0.010359412598581351 -0.04926417600888359 -0.09120735205568381 -0.008938530235762484 0.06794974056820385 0.038330210213795915 0.00942056950716569 -0.04053633603916513 0.034306904489295395 -0.007422095234016592 -0.04777485348146815 -0.00973616942182213 0.017066082564538308 -0.028169080485576033 0.04973368475488491 -0.00020031697039861194 -0.01544253607630833 0.04865861115119218 -0.07142523717041069 -0.09801184284069202 -0.03312592573983875 0.033367523119422295 -0.017437770310410106 0.055001873331088885 -0.01516189730468011 0.036427261195262114 0.013402105535442613 0.06990810255431015 0.029949961745896758 -0.04641519492636851 -0.10439913711788446 0.02022678691618901 -0.06052004803134691 -0.021785304361458258 -0.034112259339273844 0.011273674716977083 -0.057014321758886995 -0.09302934391861396 -0.05460172895883395 -0.020222042034304544 0.03528974124904018 -0.000133645283760921 0.0329219581130992 0.0218147236389206 -0.017596057647320338 0.05651253167629948 0.032643663289309136 0.0001291016816205771 -0.01879727466684131 0.006577616525147504 -0.024563460030697568 0.06336441637187061 0.05754542579011977 -0.027155227317694767 -0.04248490858271652 -0.04272480211130272 -0.015403924313346551 -0.039907574306245495 0.024583819028636877 -0.018399085122969797 -0.007517082348844117 0.012537317250273851 0.031104060624123783 0.09874525257242334 -0.006091262660085382 0.01269081876065432 0.05435812059264306 -0.004903514875406533 0.009050623140581979 -0.04636003091696974 0.0043268492142420345 0.011814670876382292 0.04615788313641862 -0.015720583233912473 0.013319109000261963 -0.027470718335828138 0.10119352904557434 -0.01166416869800625 -0.009635012239074234 0.020739325208927628 -0.07575216559954348 0.027860521928113103 -0.034413661882260145 0.03444191958819072 -0.07962144919752279 0.03021408489098701 -0.10753797783267179 -0.061511208245472467 -0.010082352298783648 -0.04402171571228248 0.02267435657057459 0.02524486246970492 -0.011630762818149416 -0.022964182685604625 -0.07470865982769573 0.056280733341956254 -0.007189427460341599 0.09959394977008634 0.018617497235598808 0.039267614751172894 0.0032708244586584587 -0.009043120080397853 -0.07788715331501121 0.0824833296782149 0.07257197532268783 -0.047347290243457754 -0.046330254479831724 -0.023876162767768185 -0.0026845733679624617 0.012756002428751037 -0.08536779578460793 -0.049717289787183885 -0.0149305236707686 0.006080621615588253 -0.0379741851058737 0.06743728097664285 -0.012492924259290305 -0.010950463090384012 -0.024642273719375836 0.035787445980755214 0.022832210599269986 -0.04335453589831497 -0.049489054900483206 -0.025446721666523217 0.08210684556635944 0.05132544965176941 -0.044130735619854956 0.015603414515521219 -0.018197427567596725 0.007041173522783327 0.08709092307003438 -0.0038478581162244736 -0.0227861911923167 0.044055483312121856 -0.005902534590722884 -0.02655503841553728 0.0243428437513051 -0.04898549533073179 -0.05998990641325314 0.09567502549860873 0.00815463665575354 -0.04826578343769907 -0.042124459901649515 -0.004500326267824239 -0.024775783512875127 0.08219776038942092 -0.018028292732903628 -0.02550356276910509 -0.09262476271996511 -0.0014413918651607226 -0.08800211680809704 -0.08192869588750311 -0.005442840673413394 -0.008871348597696692 -0.00015407072604675453 -0.00893254424011053 -0.07056384249164505 -0.023917326299255297 0.08904130605356753 -0.05795202163590107 -0.004651636622250967 -0.04783341081996217 -0.004740836263789686 0.02911403495271489 0.011833776996968273 -0.03430942558231925 -0.00325251679281571 0.05083236125053484 -0.030168657620124942 -0.06256314417619023 0.04422620276722189 -0.08270763464853285 0.005785343857712048 -0.06468973138073728 -0.05444154681455237 0.04990592276390841 -0.002155742639520057 0.08119110856791849 -0.16361841915928874 -0.0389959571058143 -0.05950194959498121 -0.007809628550644517 -0.025755733150688607 -0.025956642142245592 -0.08497329710749507 0.03388025457255935 -0.034579759843405444 -0.011534516014962555 0.025373684748288026 -0.045928248734697225 0.06316965538147279 -0.008107095351326156 0.07577467040694548 -0.0042882865565940535 0.051404573842543246 -0.010096138454524586 -0.029259233875990588 0.050887228559458555 0.02363286607085095 -0.006554628056608969 0.03839851548965305 -0.010366029983230735 -0.03812085754664367 0.004581338316062839 -0.03264628752531535 -0.015864669178366417 -0.015518119280880495 -0.08464119212551449 0.016446505873876957 0.0184777408182725 0.05975302045973556 -0.08861679296990396 0.010663978255914497 -0.051822586873075296 0.06982662172716698 0.01149725110935257 -0.03549283362655053 -0.07928746001964729 -0.03275486670833162 0.08607407847929957 0.04615602984646246 -0.042201392514376095 0.05296652433034335 0.007261196905229846 0.030313283158231865
